{"learner":{"attributes":{"scikit_learn":"{\"_estimator_type\": \"classifier\"}"},"feature_names":["Age","Gender","Ethnicity","SocioeconomicStatus","EducationLevel","BMI","Smoking","AlcoholConsumption","PhysicalActivity","FamilyHistoryKidneyDisease","FamilyHistoryHypertension","FamilyHistoryDiabetes","PreviousAcuteKidneyInjury","UrinaryTractInfections","SystolicBP","DiastolicBP","FastingBloodSugar","HbA1c","SerumCreatinine","SerumElectrolytesSodium","SerumElectrolytesPotassium","SerumElectrolytesCalcium","SerumElectrolytesPhosphorus","HemoglobinLevels","CholesterolTotal","CholesterolLDL","CholesterolHDL","CholesterolTriglycerides","ACEInhibitors","Diuretics","NSAIDsUse","Statins","AntidiabeticMedications","Edema","FatigueLevels","NauseaVomiting","MuscleCramps","Itching","HeavyMetalsExposure","OccupationalExposureChemicals","MedicalCheckupsFrequency","MedicationAdherence","HistoryDiabetes","HistoryCHD","HistoryVascular","HistoryHTN","HistoryDLD","HistoryObesity","HTNmeds","PackedCellVolume","WhiteBloodCellCount","RedBloodCellCount"],"feature_types":["float","float","float","float","float","float","float","float","float","float","float","float","float","float","float","float","float","float","float","float","float","float","float","float","float","float","float","float","float","float","float","float","float","float","float","float","float","float","float","float","float","float","float","float","float","float","float","float","float","float","float","float"],"gradient_booster":{"model":{"cats":{"enc":[],"feature_segments":[],"sorted_idx":[]},"gbtree_model_param":{"num_parallel_tree":"1","num_trees":"85"},"iteration_indptr":[0,1,2,3,4,5,6,7,8,9,10,11,12,13,14,15,16,17,18,19,20,21,22,23,24,25,26,27,28,29,30,31,32,33,34,35,36,37,38,39,40,41,42,43,44,45,46,47,48,49,50,51,52,53,54,55,56,57,58,59,60,61,62,63,64,65,66,67,68,69,70,71,72,73,74,75,76,77,78,79,80,81,82,83,84,85],"tree_info":[0,0,0,0,0,0,0,0,0,0,0,0,0,0,0,0,0,0,0,0,0,0,0,0,0,0,0,0,0,0,0,0,0,0,0,0,0,0,0,0,0,0,0,0,0,0,0,0,0,0,0,0,0,0,0,0,0,0,0,0,0,0,0,0,0,0,0,0,0,0,0,0,0,0,0,0,0,0,0,0,0,0,0,0,0],"trees":[{"base_weights":[3.5859305E-2,-1.69592E0,1.2181793E0,5.0123894E-1,-2.3891788E0,3.2569025E-2,7.7272356E-2,-4.5840414E-3,7.240732E-2,-8.703072E-2,-1.4942788E-1],"categories":[],"categories_nodes":[],"categories_segments":[],"categories_sizes":[],"default_left":[0,0,1,0,0,0,0,0,0,0,0],"id":0,"left_children":[1,3,5,7,9,-1,-1,-1,-1,-1,-1],"loss_changes":[6.238271E2,1.8949945E2,7.822357E0,1.2513258E1,5.338318E0,0E0,0E0,0E0,0E0,0E0,0E0],"parents":[2147483647,0,0,1,1,2,2,3,3,4,4],"right_children":[2,4,6,8,10,-1,-1,-1,-1,-1,-1],"split_conditions":[-4.3881094E-1,1.5217001E0,-3.3688805E-1,9.353357E-2,4.256801E-1,3.2569025E-2,7.7272356E-2,-4.5840414E-3,7.240732E-2,-8.703072E-2,-1.4942788E-1],"split_indices":[18,35,18,37,23,0,0,0,0,0,0],"split_type":[0,0,0,0,0,0,0,0,0,0,0],"sum_hessian":[3.0266592E2,1.22622574E2,1.8004333E2,2.9477127E1,9.3145454E1,1.7663557E1,1.6237978E2,1.6698025E1,1.2779101E1,1.0564057E1,8.258139E1],"tree_param":{"num_deleted":"0","num_feature":"52","num_nodes":"11","size_leaf_vector":"1"}},{"base_weights":[4.962522E-2,-1.5162859E0,1.1982493E0,-2.0762708E0,4.969033E-1,3.27732E-2,7.534406E-2,-1.3954985E-1,-1.5205292E0,-7.730239E-3,5.907143E-2,-5.440306E-2,-1.3243783E-1],"categories":[],"categories_nodes":[],"categories_segments":[],"categories_sizes":[],"default_left":[1,1,0,0,0,0,0,0,1,0,0,0,0],"id":1,"left_children":[1,3,5,7,9,-1,-1,-1,11,-1,-1,-1,-1],"loss_changes":[5.460223E2,1.4586087E2,5.8770905E0,1.0430145E1,8.903623E0,0E0,0E0,0E0,1.2371529E1,0E0,0E0,0E0,0E0],"parents":[2147483647,0,0,1,1,2,2,3,3,4,4,8,8],"right_children":[2,4,6,8,10,-1,-1,-1,12,-1,-1,-1,-1],"split_conditions":[-4.3881094E-1,-1.4976193E0,-3.3688805E-1,-5.532821E-1,-1.18954115E-1,3.27732E-2,7.534406E-2,-1.3954985E-1,-9.005573E-1,-7.730239E-3,5.907143E-2,-5.440306E-2,-1.3243783E-1],"split_indices":[18,37,18,18,37,0,0,0,19,0,0,0,0],"split_type":[0,0,0,0,0,0,0,0,0,0,0,0,0],"sum_hessian":[3.015644E2,1.27468025E2,1.7409636E2,9.9703384E1,2.7764639E1,1.4956228E1,1.5914012E2,6.660763E1,3.3095757E1,1.2482374E1,1.5282265E1,1.870135E1,1.4394408E1],"tree_param":{"num_deleted":"0","num_feature":"52","num_nodes":"13","size_leaf_vector":"1"}},{"base_weights":[1.4609505E-3,-1.440248E0,1.126033E0,3.140485E-1,-1.9358238E0,2.1309523E-2,7.20273E-2,-2.5340918E-2,5.7161406E-2,-1.363901E-1,-1.5698153E0,-5.931032E-2,-1.3472103E-1],"categories":[],"categories_nodes":[],"categories_segments":[],"categories_sizes":[],"default_left":[1,0,0,0,0,0,0,0,0,0,1,0,0],"id":2,"left_children":[1,3,5,7,9,-1,-1,-1,-1,-1,11,-1,-1],"loss_changes":[4.822433E2,1.13925964E2,9.16011E0,1.4309304E1,8.997406E0,0E0,0E0,0E0,0E0,0E0,1.8217896E1,0E0,0E0],"parents":[2147483647,0,0,1,1,2,2,3,3,4,4,10,10],"right_children":[2,4,6,8,10,-1,-1,-1,-1,-1,12,-1,-1],"split_conditions":[-4.3881094E-1,1.5217001E0,-3.3688805E-1,-1.5728256E-1,1.8305764E0,2.1309523E-2,7.20273E-2,-2.5340918E-2,5.7161406E-2,-1.363901E-1,-2.0560302E-1,-5.931032E-2,-1.3472103E-1],"split_indices":[18,35,18,37,32,0,0,0,0,0,51,0,0],"split_type":[0,0,0,0,0,0,0,0,0,0,0,0,0],"sum_hessian":[2.9544107E2,1.2934245E2,1.6609862E2,2.857074E1,1.0077171E2,1.5131967E1,1.5096666E2,1.342708E1,1.5143659E1,4.972772E1,5.1043995E1,2.8759357E1,2.2284637E1],"tree_param":{"num_deleted":"0","num_feature":"52","num_nodes":"13","size_leaf_vector":"1"}},{"base_weights":[4.7658317E-2,-1.2963835E0,9.987074E-1,8.0740795E-2,-1.7567924E0,7.38714E-1,6.972956E-2,-1.19769305E-1,-1.2113332E0,3.253941E-1,5.7500903E-2,-1.0885427E-1,-5.1214322E-2,-6.9549335E-3,5.0044328E-2],"categories":[],"categories_nodes":[],"categories_segments":[],"categories_sizes":[],"default_left":[1,0,0,0,0,0,0,0,0,0,0,0,0,0,0],"id":3,"left_children":[1,3,5,-1,7,9,-1,-1,11,13,-1,-1,-1,-1,-1],"loss_changes":[3.8612305E2,1.5464783E2,6.6578217E0,0E0,1.1558044E1,6.1350403E0,0E0,0E0,6.041973E0,5.968508E0,0E0,0E0,0E0,0E0,0E0],"parents":[2147483647,0,0,1,1,2,2,4,4,5,5,8,8,9,9],"right_children":[2,4,6,-1,8,10,-1,-1,12,14,-1,-1,-1,-1,-1],"split_conditions":[-1.7368015E0,-2.2787744E-1,-3.5638142E-1,8.0740795E-2,1.2707536E0,-6.874132E-1,6.972956E-2,-1.19769305E-1,1.4487653E0,1.5843825E-1,5.7500903E-2,-1.0885427E-1,-5.1214322E-2,-6.9549335E-3,5.0044328E-2],"split_indices":[25,23,16,0,42,17,0,0,28,37,0,0,0,0,0],"split_type":[0,0,0,0,0,0,0,0,0,0,0,0,0,0,0],"sum_hessian":[3.000588E2,1.24189125E2,1.7586969E2,1.8144403E1,1.0604472E2,7.0017075E1,1.05852615E2,7.1853714E1,3.4191006E1,2.5156929E1,4.4860146E1,1.1216941E1,2.2974066E1,1.3883906E1,1.1273023E1],"tree_param":{"num_deleted":"0","num_feature":"52","num_nodes":"15","size_leaf_vector":"1"}},{"base_weights":[1.7963909E-2,-1.225387E0,1.0631701E0,-1.702471E0,4.8242277E-1,2.3629973E-2,6.829432E-2,-1.1325514E-1,-1.2343409E0,-1.1974475E-2,5.3736933E-2,-4.4684798E-2,-1.0770423E-1],"categories":[],"categories_nodes":[],"categories_segments":[],"categories_sizes":[],"default_left":[0,1,1,0,0,0,0,0,1,0,0,0,0],"id":4,"left_children":[1,3,5,7,9,-1,-1,-1,11,-1,-1,-1,-1],"loss_changes":[3.8563782E2,1.112495E2,7.651886E0,6.869629E0,8.737926E0,0E0,0E0,0E0,7.715145E0,0E0,0E0,0E0,0E0],"parents":[2147483647,0,0,1,1,2,2,3,3,4,4,8,8],"right_children":[2,4,6,8,10,-1,-1,-1,12,-1,-1,-1,-1],"split_conditions":[-4.3881094E-1,-1.5183591E0,-3.3688805E-1,-5.532821E-1,-4.957583E-1,2.3629973E-2,6.829432E-2,-1.1325514E-1,-1.9721393E-1,-1.1974475E-2,5.3736933E-2,-4.4684798E-2,-1.0770423E-1],"split_indices":[18,36,18,18,37,0,0,0,23,0,0,0,0],"split_type":[0,0,0,0,0,0,0,0,0,0,0,0,0],"sum_hessian":[2.9474286E2,1.3453319E2,1.6020967E2,1.05159546E2,2.9373644E1,1.6786013E1,1.4342366E2,7.3186775E1,3.1972765E1,1.1277125E1,1.8096518E1,1.831202E1,1.3660747E1],"tree_param":{"num_deleted":"0","num_feature":"52","num_nodes":"13","size_leaf_vector":"1"}},{"base_weights":[4.9168587E-2,-1.1414874E0,6.7049295E-2,-1.5357156E0,3.775699E-1,-1.1145237E-1,-1.1973097E0,-1.9967516E-3,4.627974E-2,-4.2449795E-2,-1.0164223E-1],"categories":[],"categories_nodes":[],"categories_segments":[],"categories_sizes":[],"default_left":[1,1,0,0,0,0,1,0,0,0,0],"id":5,"left_children":[1,3,-1,5,7,-1,9,-1,-1,-1,-1],"loss_changes":[3.7514667E2,8.41187E1,0E0,9.8594055E0,4.8054633E0,0E0,1.2644501E1,0E0,0E0,0E0,0E0],"parents":[2147483647,0,0,1,1,3,3,4,4,6,6],"right_children":[2,4,-1,6,8,-1,10,-1,-1,-1,-1],"split_conditions":[-4.2105088E-1,-1.4684743E0,6.7049295E-2,1.8305764E0,2.5711408E-1,-1.1145237E-1,-9.005573E-1,-1.9967516E-3,4.627974E-2,-4.2449795E-2,-1.0164223E-1],"split_indices":[18,36,0,32,15,0,19,0,0,0,0],"split_type":[0,0,0,0,0,0,0,0,0,0,0],"sum_hessian":[2.9292352E2,1.3849763E2,1.5442589E2,1.09951805E2,2.8545834E1,5.4055717E1,5.5896088E1,1.4417776E1,1.4128058E1,2.936457E1,2.6531515E1],"tree_param":{"num_deleted":"0","num_feature":"52","num_nodes":"11","size_leaf_vector":"1"}},{"base_weights":[-6.183314E-4,-1.099408E0,5.899511E-2,-1.35183E0,5.5129375E-2,8.236447E-3,-1.4941849E0,-9.937293E-2,-5.237199E-2],"categories":[],"categories_nodes":[],"categories_segments":[],"categories_sizes":[],"default_left":[1,1,0,0,0,0,1,0,0],"id":6,"left_children":[1,3,-1,5,-1,-1,7,-1,-1],"loss_changes":[3.1129688E2,7.054297E1,0E0,2.5921494E1,0E0,0E0,9.71019E0,0E0,0E0],"parents":[2147483647,0,0,1,1,3,3,6,6],"right_children":[2,4,-1,6,-1,-1,8,-1,-1],"split_conditions":[-4.3881094E-1,-2.6647067E-1,5.899511E-2,-2.2787744E-1,5.5129375E-2,8.236447E-3,-5.259149E-1,-9.937293E-2,-5.237199E-2],"split_indices":[18,36,0,23,0,0,18,0,0],"split_type":[0,0,0,0,0,0,0,0,0],"sum_hessian":[2.8595355E2,1.3503195E2,1.509216E2,1.2031433E2,1.4717627E1,1.0501282E1,1.0981305E2,8.577781E1,2.4035234E1],"tree_param":{"num_deleted":"0","num_feature":"52","num_nodes":"9","size_leaf_vector":"1"}},{"base_weights":[5.681107E-2,-1.0280346E0,9.8627084E-1,4.340091E-1,-1.4254719E0,2.4668638E-2,6.3050434E-2,-7.152239E-3,5.7482902E-2,-3.1957723E-2,-9.1483034E-2],"categories":[],"categories_nodes":[],"categories_segments":[],"categories_sizes":[],"default_left":[0,0,1,0,0,0,0,0,0,0,0],"id":7,"left_children":[1,3,5,7,9,-1,-1,-1,-1,-1,-1],"loss_changes":[2.8480264E2,7.6365616E1,5.215912E0,8.413803E0,8.2907715E0,0E0,0E0,0E0,0E0,0E0,0E0],"parents":[2147483647,0,0,1,1,2,2,3,3,4,4],"right_children":[2,4,6,8,10,-1,-1,-1,-1,-1,-1],"split_conditions":[-4.3881094E-1,1.5217001E0,-3.3688805E-1,-1.18954115E-1,3.3410192E-1,2.4668638E-2,6.3050434E-2,-7.152239E-3,5.7482902E-2,-3.1957723E-2,-9.1483034E-2],"split_indices":[18,35,18,37,23,0,0,0,0,0,0],"split_type":[0,0,0,0,0,0,0,0,0,0,0],"sum_hessian":[2.8044693E2,1.2935753E2,1.510894E2,2.7628649E1,1.0172889E2,1.5994325E1,1.3509508E2,1.3816012E1,1.3812635E1,1.0813549E1,9.091534E1],"tree_param":{"num_deleted":"0","num_feature":"52","num_nodes":"11","size_leaf_vector":"1"}},{"base_weights":[1.3603975E-2,-9.435141E-1,5.853602E-2,-1.2396288E0,6.0161966E-1,-3.4880189E-3,-1.3655366E0,7.4246717E-3,6.286448E-2,-9.6001655E-2,-5.577635E-2],"categories":[],"categories_nodes":[],"categories_segments":[],"categories_sizes":[],"default_left":[1,1,0,0,0,0,0,0,0,0,0],"id":8,"left_children":[1,3,-1,5,7,-1,9,-1,-1,-1,-1],"loss_changes":[2.5542143E2,6.437251E1,0E0,1.73293E1,4.7818003E0,0E0,9.318588E0,0E0,0E0,0E0,0E0],"parents":[2147483647,0,0,1,1,3,3,4,4,6,6],"right_children":[2,4,-1,6,8,-1,10,-1,-1,-1,-1],"split_conditions":[-4.0679932E-1,-7.545641E-1,5.853602E-2,-2.4829444E-2,1.2696266E-1,-3.4880189E-3,1.2707536E0,7.4246717E-3,6.286448E-2,-9.6001655E-2,-5.577635E-2],"split_indices":[18,17,0,23,8,0,42,0,0,0,0],"split_type":[0,0,0,0,0,0,0,0,0,0,0],"sum_hessian":[2.754079E2,1.3806361E2,1.3734428E2,1.1602576E2,2.2037855E1,1.131448E1,1.0471128E2,1.1257001E1,1.0780854E1,6.635043E1,3.8360847E1],"tree_param":{"num_deleted":"0","num_feature":"52","num_nodes":"11","size_leaf_vector":"1"}},{"base_weights":[3.591353E-2,-9.369001E-1,9.424297E-1,-1.261687E0,3.5691714E-1,1.8796708E-2,5.9796806E-2,-8.774017E-2,-8.6690986E-1,-9.340409E-3,5.2591566E-2,-3.1556915E-2,-8.286493E-2],"categories":[],"categories_nodes":[],"categories_segments":[],"categories_sizes":[],"default_left":[1,1,0,0,0,0,0,0,1,0,0,0,0],"id":9,"left_children":[1,3,5,7,9,-1,-1,-1,11,-1,-1,-1,-1],"loss_changes":[2.3693257E2,5.491633E1,4.4281235E0,6.9565887E0,7.2712927E0,0E0,0E0,0E0,5.838028E0,0E0,0E0,0E0,0E0],"parents":[2147483647,0,0,1,1,2,2,3,3,4,4,8,8],"right_children":[2,4,6,8,10,-1,-1,-1,12,-1,-1,-1,-1],"split_conditions":[-4.3881094E-1,-1.5183591E0,-1.4863064E0,-5.679152E-1,2.4304993E-2,1.8796708E-2,5.9796806E-2,-8.774017E-2,-2.8413966E-1,-9.340409E-3,5.2591566E-2,-3.1556915E-2,-8.286493E-2],"split_indices":[18,36,14,18,14,0,0,0,23,0,0,0,0],"split_type":[0,0,0,0,0,0,0,0,0,0,0,0,0],"sum_hessian":[2.66669E2,1.2861467E2,1.3805434E2,1.0282687E2,2.5787798E1,1.1484497E1,1.2656983E2,6.638293E1,3.644395E1,1.3334152E1,1.2453646E1,2.3129242E1,1.3314709E1],"tree_param":{"num_deleted":"0","num_feature":"52","num_nodes":"13","size_leaf_vector":"1"}},{"base_weights":[4.5012305E-3,-9.102789E-1,8.6767256E-1,-1.241352E0,3.680941E-1,1.4994762E-2,5.7019763E-2,-9.094171E-2,-9.4555885E-1,-1.6650235E-2,5.3320248E-2,-8.5200936E-2,-3.0034779E-2],"categories":[],"categories_nodes":[],"categories_segments":[],"categories_sizes":[],"default_left":[0,1,1,0,0,0,0,0,0,0,0,0,0],"id":10,"left_children":[1,3,5,7,9,-1,-1,-1,11,-1,-1,-1,-1],"loss_changes":[2.0893066E2,5.48264E1,6.713936E0,6.8655243E0,9.386953E0,0E0,0E0,0E0,1.0239559E1,0E0,0E0,0E0,0E0],"parents":[2147483647,0,0,1,1,2,2,3,3,4,4,8,8],"right_children":[2,4,6,8,10,-1,-1,-1,12,-1,-1,-1,-1],"split_conditions":[-4.3881094E-1,-1.5183591E0,-3.3688805E-1,1.8305764E0,-3.82128E-1,1.4994762E-2,5.7019763E-2,-9.094171E-2,3.9054554E-2,-1.6650235E-2,5.3320248E-2,-8.5200936E-2,-3.0034779E-2],"split_indices":[18,36,18,32,37,0,0,0,16,0,0,0,0],"split_type":[0,0,0,0,0,0,0,0,0,0,0,0,0],"sum_hessian":[2.6259888E2,1.274617E2,1.3513718E2,1.0126504E2,2.6196663E1,1.6422483E1,1.1871469E2,5.039777E1,5.0867264E1,1.1902544E1,1.4294119E1,2.3557747E1,2.7309517E1],"tree_param":{"num_deleted":"0","num_feature":"52","num_nodes":"13","size_leaf_vector":"1"}},{"base_weights":[4.3499578E-2,-7.968043E-1,5.5646818E-2,-1.1142008E0,3.2281026E-1,-8.524622E-2,-8.140382E-1,-1.0599229E-2,3.650925E-2,-2.2785861E-2,-8.002286E-2],"categories":[],"categories_nodes":[],"categories_segments":[],"categories_sizes":[],"default_left":[1,1,0,0,0,0,1,0,0,0,0],"id":11,"left_children":[1,3,-1,5,7,-1,9,-1,-1,-1,-1],"loss_changes":[1.9302475E2,4.7711586E1,0E0,8.417587E0,4.4175396E0,0E0,1.1886284E1,0E0,0E0,0E0,0E0],"parents":[2147483647,0,0,1,1,3,3,4,4,6,6],"right_children":[2,4,-1,6,8,-1,10,-1,-1,-1,-1],"split_conditions":[-4.0679932E-1,-1.4259229E0,5.5646818E-2,1.8305764E0,-4.1313446E-1,-8.524622E-2,-2.8413966E-1,-1.0599229E-2,3.650925E-2,-2.2785861E-2,-8.002286E-2],"split_indices":[18,21,0,32,26,0,23,0,0,0,0],"split_type":[0,0,0,0,0,0,0,0,0,0,0],"sum_hessian":[2.5787158E2,1.322499E2,1.2562168E2,1.0304327E2,2.920663E1,4.9130623E1,5.391264E1,1.0765822E1,1.8440807E1,3.0312437E1,2.3600203E1],"tree_param":{"num_deleted":"0","num_feature":"52","num_nodes":"11","size_leaf_vector":"1"}},{"base_weights":[1.0547739E-2,-8.2175446E-1,5.2224696E-2,4.5291904E-1,-1.1374098E0,-6.6860327E-3,6.418108E-2,-2.3330478E-2,-7.321808E-2],"categories":[],"categories_nodes":[],"categories_segments":[],"categories_sizes":[],"default_left":[0,0,0,0,0,0,0,0,0],"id":12,"left_children":[1,3,-1,5,7,-1,-1,-1,-1],"loss_changes":[1.8157552E2,5.239126E1,0E0,9.275573E0,5.9553986E0,0E0,0E0,0E0,0E0],"parents":[2147483647,0,0,1,1,3,3,4,4],"right_children":[2,4,-1,6,8,-1,-1,-1,-1],"split_conditions":[-4.0679932E-1,1.1202065E0,5.2224696E-2,-2.5120981E-2,2.0968808E-1,-6.6860327E-3,6.418108E-2,-2.3330478E-2,-7.321808E-2],"split_indices":[18,35,0,37,23,0,0,0,0],"split_type":[0,0,0,0,0,0,0,0,0],"sum_hessian":[2.517158E2,1.27930374E2,1.2378543E2,2.5305862E1,1.0262451E2,1.3642254E1,1.1663609E1,1.0798385E1,9.1826126E1],"tree_param":{"num_deleted":"0","num_feature":"52","num_nodes":"9","size_leaf_vector":"1"}},{"base_weights":[1.1866599E-2,-7.487118E-1,4.8652876E-2,-9.918607E-1,3.416155E-2,-7.396018E-2,-6.0063285E-1,-5.315537E-2,1.18836565E-2],"categories":[],"categories_nodes":[],"categories_segments":[],"categories_sizes":[],"default_left":[0,1,0,0,0,0,0,0,0],"id":13,"left_children":[1,3,-1,5,-1,-1,7,-1,-1],"loss_changes":[1.514529E2,4.1487106E1,0E0,9.4500885E0,0E0,0E0,1.0010361E1,0E0,0E0],"parents":[2147483647,0,0,1,1,3,3,6,6],"right_children":[2,4,-1,6,-1,-1,8,-1,-1],"split_conditions":[-4.0679932E-1,-7.3149043E-1,4.8652876E-2,1.2707536E0,3.416155E-2,-7.396018E-2,6.9568783E-1,-5.315537E-2,1.18836565E-2],"split_indices":[18,17,0,42,0,0,14,0,0],"split_type":[0,0,0,0,0,0,0,0,0],"sum_hessian":[2.4721866E2,1.26687935E2,1.2053072E2,1.07166145E2,1.9521795E1,6.500401E1,4.216213E1,3.0985151E1,1.1176978E1],"tree_param":{"num_deleted":"0","num_feature":"52","num_nodes":"9","size_leaf_vector":"1"}},{"base_weights":[3.9819404E-2,5.0831777E-1,-6.808006E-2,7.725599E-1,-6.663818E-2,3.7868416E-1,9.191189E-1,3.88649E-2,-1.6907563E-2,3.901037E-2,7.519176E-2],"categories":[],"categories_nodes":[],"categories_segments":[],"categories_sizes":[],"default_left":[0,1,0,0,0,0,0,0,0,0,0],"id":14,"left_children":[1,3,-1,5,-1,7,9,-1,-1,-1,-1],"loss_changes":[1.3284866E2,7.466615E1,0E0,8.248047E0,0E0,7.6612673E0,8.873444E0,0E0,0E0,0E0,0E0],"parents":[2147483647,0,0,1,1,3,3,5,5,6,6],"right_children":[2,4,-1,6,-1,8,10,-1,-1,-1,-1],"split_conditions":[3.9551153E0,8.8277705E-2,-6.808006E-2,-7.3149043E-1,-6.663818E-2,9.350523E-1,6.275882E-1,3.88649E-2,-1.6907563E-2,3.901037E-2,7.519176E-2],"split_indices":[33,49,0,17,0,35,7,0,0,0,0],"split_type":[0,0,0,0,0,0,0,0,0,0,0],"sum_hessian":[2.3938712E2,1.7153119E2,6.785593E1,1.4791211E2,2.3619081E1,4.1083775E1,1.0682833E2,2.9205393E1,1.1878383E1,6.0815495E1,4.601284E1],"tree_param":{"num_deleted":"0","num_feature":"52","num_nodes":"11","size_leaf_vector":"1"}},{"base_weights":[-5.2697794E-3,-7.75762E-1,4.9631648E-2,-9.722293E-1,3.923796E-2,-7.198619E-2,-5.9049773E-1,-5.6684535E-2,-2.670733E-3],"categories":[],"categories_nodes":[],"categories_segments":[],"categories_sizes":[],"default_left":[1,1,0,0,0,0,0,0,0],"id":15,"left_children":[1,3,-1,5,-1,-1,7,-1,-1],"loss_changes":[1.5353775E2,3.555439E1,0E0,8.819618E0,0E0,0E0,8.262376E0,0E0,0E0],"parents":[2147483647,0,0,1,1,3,3,6,6],"right_children":[2,4,-1,6,-1,-1,8,-1,-1],"split_conditions":[-4.0679932E-1,-2.6647067E-1,4.9631648E-2,-5.528637E-1,3.923796E-2,-7.198619E-2,1.2707536E0,-5.6684535E-2,-2.670733E-3],"split_indices":[18,36,0,18,0,0,42,0,0],"split_type":[0,0,0,0,0,0,0,0,0],"sum_hessian":[2.3737602E2,1.23311966E2,1.1406406E2,1.0869547E2,1.4616488E1,6.6759094E1,4.1936382E1,2.499128E1,1.6945103E1],"tree_param":{"num_deleted":"0","num_feature":"52","num_nodes":"9","size_leaf_vector":"1"}},{"base_weights":[-4.2936415E-3,4.3864232E-1,-1.0634995E0,6.834803E-1,-6.2130343E-2,-7.602106E-2,-3.776366E-2,3.683127E-1,5.7846278E-2,-1.1784794E-2,3.827211E-2],"categories":[],"categories_nodes":[],"categories_segments":[],"categories_sizes":[],"default_left":[0,1,0,0,0,0,0,0,0,0,0],"id":16,"left_children":[1,3,5,7,-1,-1,-1,9,-1,-1,-1],"loss_changes":[1.0763414E2,5.909749E1,5.179077E0,1.1968399E1,0E0,0E0,0E0,1.0362042E1,0E0,0E0,0E0],"parents":[2147483647,0,0,1,1,2,2,3,3,7,7],"right_children":[2,4,6,8,-1,-1,-1,10,-1,-1,-1],"split_conditions":[3.9551153E0,-2.0560302E-1,1.8305764E0,1.3488775E-1,-6.2130343E-2,-7.602106E-2,-3.776366E-2,-6.618754E-1,5.7846278E-2,-1.1784794E-2,3.827211E-2],"split_indices":[33,51,32,36,0,0,0,37,0,0,0],"split_type":[0,0,0,0,0,0,0,0,0,0,0],"sum_hessian":[2.2742435E2,1.6077693E2,6.6647415E1,1.3833717E2,2.2439758E1,4.4068436E1,2.2578978E1,6.6247475E1,7.20897E1,2.1492184E1,4.475529E1],"tree_param":{"num_deleted":"0","num_feature":"52","num_nodes":"11","size_leaf_vector":"1"}},{"base_weights":[1.4059939E-2,-6.8524474E-1,4.583922E-2,-8.5398704E-1,3.3321384E-2,6.5386463E-3,-9.7522783E-1,-7.5005256E-2,-4.1248795E-2],"categories":[],"categories_nodes":[],"categories_segments":[],"categories_sizes":[],"default_left":[1,1,0,0,0,0,0,0,0],"id":17,"left_children":[1,3,-1,5,-1,-1,7,-1,-1],"loss_changes":[1.1756175E2,2.4760372E1,0E0,1.2075005E1,0E0,0E0,6.3498535E0,0E0,0E0],"parents":[2147483647,0,0,1,1,3,3,6,6],"right_children":[2,4,-1,6,-1,-1,8,-1,-1],"split_conditions":[-4.3881094E-1,3.9054554E-2,4.583922E-2,8.298729E-1,3.3321384E-2,6.5386463E-3,1.8305764E0,-7.5005256E-2,-4.1248795E-2],"split_indices":[18,16,0,35,0,0,32,0,0],"split_type":[0,0,0,0,0,0,0,0,0],"sum_hessian":[2.2217334E2,1.1501162E2,1.0716173E2,1.01515465E2,1.3496153E1,1.1363232E1,9.015224E1,4.4398212E1,4.5754025E1],"tree_param":{"num_deleted":"0","num_feature":"52","num_nodes":"9","size_leaf_vector":"1"}},{"base_weights":[-3.7531965E-4,-6.6291404E-1,7.2610205E-1,-8.443801E-1,3.729047E-2,8.41649E-3,7.962169E-1,-9.632315E-1,8.900308E-3,5.2531764E-2,1.1486593E-2,-7.2276525E-2,-4.2876225E-2],"categories":[],"categories_nodes":[],"categories_segments":[],"categories_sizes":[],"default_left":[0,1,0,1,0,0,1,0,0,0,0,0,0],"id":18,"left_children":[1,3,5,7,-1,-1,9,11,-1,-1,-1,-1,-1],"loss_changes":[1.06464096E2,2.7488934E1,4.2219734E0,1.2152634E1,0E0,0E0,4.3418694E0,4.6027374E0,0E0,0E0,0E0,0E0,0E0],"parents":[2147483647,0,0,1,1,2,2,3,3,6,6,7,7],"right_children":[2,4,6,8,-1,-1,10,12,-1,-1,-1,-1,-1],"split_conditions":[-4.0679932E-1,6.6745035E-2,-1.3604221E0,-5.7742965E-1,3.729047E-2,8.41649E-3,1.2532439E0,-6.012377E-1,8.900308E-3,5.2531764E-2,1.1486593E-2,-7.2276525E-2,-4.2876225E-2],"split_indices":[18,16,14,36,0,0,26,18,0,0,0,0,0],"split_type":[0,0,0,0,0,0,0,0,0,0,0,0,0],"sum_hessian":[2.1919218E2,1.1468674E2,1.0450545E2,1.0078956E2,1.3897182E1,1.1491523E1,9.301392E1,9.003945E1,1.0750104E1,8.183415E1,1.1179769E1,4.373491E1,4.6304543E1],"tree_param":{"num_deleted":"0","num_feature":"52","num_nodes":"13","size_leaf_vector":"1"}},{"base_weights":[-1.1438641E-2,-6.3525605E-1,6.8495965E-1,-7.8862E-1,3.6903325E-2,3.5924104E-1,4.9256667E-2,-9.112337E-1,1.4230115E-2,-6.8539735E-3,4.1245405E-2,-7.091008E-2,-3.8084023E-2],"categories":[],"categories_nodes":[],"categories_segments":[],"categories_sizes":[],"default_left":[0,1,1,1,0,0,0,0,0,0,0,0,0],"id":19,"left_children":[1,3,5,7,-1,9,-1,11,-1,-1,-1,-1,-1],"loss_changes":[9.4026405E1,2.23754E1,4.2352448E0,1.3060921E1,0E0,5.0356073E0,0E0,6.090538E0,0E0,0E0,0E0,0E0,0E0],"parents":[2147483647,0,0,1,1,2,2,3,3,5,5,7,7],"right_children":[2,4,6,8,-1,10,-1,12,-1,-1,-1,-1,-1],"split_conditions":[-4.0679932E-1,1.20861806E-1,-6.294411E-1,-7.545641E-1,3.6903325E-2,-4.318959E-2,4.9256667E-2,1.8305764E0,1.4230115E-2,-6.8539735E-3,4.1245405E-2,-7.091008E-2,-3.8084023E-2],"split_indices":[18,16,16,17,0,36,0,32,0,0,0,0,0],"split_type":[0,0,0,0,0,0,0,0,0,0,0,0,0],"sum_hessian":[2.1443697E2,1.131593E2,1.0127767E2,1.01124565E2,1.2034737E1,3.0901768E1,7.037591E1,9.0427345E1,1.0697215E1,1.2917461E1,1.7984306E1,4.40464E1,4.638095E1],"tree_param":{"num_deleted":"0","num_feature":"52","num_nodes":"13","size_leaf_vector":"1"}},{"base_weights":[2.4777599E-2,-5.932647E-1,7.001328E-1,-7.9341453E-1,2.3933345E-2,4.5200253E-1,5.3911533E-2,-5.990424E-2,-4.2081115E-1,-5.5772467E-3,4.752583E-2,6.4683785E-3,-5.317074E-2],"categories":[],"categories_nodes":[],"categories_segments":[],"categories_sizes":[],"default_left":[0,1,0,0,0,0,0,0,1,0,0,0,0],"id":20,"left_children":[1,3,5,7,-1,9,-1,-1,11,-1,-1,-1,-1],"loss_changes":[8.860626E1,2.2332233E1,4.586544E0,6.6518517E0,0E0,8.79822E0,0E0,0E0,8.604481E0,0E0,0E0,0E0,0E0],"parents":[2147483647,0,0,1,1,2,2,3,3,5,5,8,8],"right_children":[2,4,6,8,-1,10,-1,-1,12,-1,-1,-1,-1],"split_conditions":[-4.0679932E-1,-3.793526E-1,1.0822785E-1,-5.528637E-1,2.3933345E-2,-2.2072363E-1,5.3911533E-2,-5.990424E-2,-9.005573E-1,-5.5772467E-3,4.752583E-2,6.4683785E-3,-5.317074E-2],"split_indices":[18,26,14,18,0,15,0,0,19,0,0,0,0],"split_type":[0,0,0,0,0,0,0,0,0,0,0,0,0],"sum_hessian":[2.1028726E2,1.0986621E2,1.0042104E2,9.158986E1,1.8276356E1,4.6074234E1,5.4346813E1,5.8000874E1,3.3588985E1,1.7983976E1,2.8090256E1,1.6085545E1,1.750344E1],"tree_param":{"num_deleted":"0","num_feature":"52","num_nodes":"13","size_leaf_vector":"1"}},{"base_weights":[3.6682643E-2,4.0373853E-1,-9.280212E-1,6.240432E-1,-5.337906E-2,-7.0313334E-2,-2.4471354E-2,7.475844E-2,4.9643263E-1,1.0971959E-2,3.8124613E-2],"categories":[],"categories_nodes":[],"categories_segments":[],"categories_sizes":[],"default_left":[0,1,0,1,0,0,0,0,0,0,0],"id":21,"left_children":[1,3,5,7,-1,-1,-1,-1,9,-1,-1],"loss_changes":[7.3063576E1,4.312419E1,6.7375107E0,9.559296E0,0E0,0E0,0E0,0E0,4.593359E0,0E0,0E0],"parents":[2147483647,0,0,1,1,2,2,3,3,8,8],"right_children":[2,4,6,8,-1,-1,-1,-1,10,-1,-1],"split_conditions":[3.9551153E0,8.8277705E-2,1.8305764E0,-1.565786E0,-5.337906E-2,-7.0313334E-2,-2.4471354E-2,7.475844E-2,-6.618754E-1,1.0971959E-2,3.8124613E-2],"split_indices":[33,49,32,40,0,0,0,0,37,0,0],"split_type":[0,0,0,0,0,0,0,0,0,0,0],"sum_hessian":[2.0427776E2,1.4839651E2,5.588124E1,1.2724091E2,2.1155596E1,3.719179E1,1.868945E1,2.0170906E1,1.0707001E2,3.3592686E1,7.3477325E1],"tree_param":{"num_deleted":"0","num_feature":"52","num_nodes":"11","size_leaf_vector":"1"}},{"base_weights":[-3.06179E-4,-5.403702E-1,4.4196825E-2,-7.192973E-1,4.165849E-2,8.822013E-3,-8.2260334E-1,-6.4171545E-2,-2.9619453E-2],"categories":[],"categories_nodes":[],"categories_segments":[],"categories_sizes":[],"default_left":[1,1,0,0,0,0,0,0,0],"id":22,"left_children":[1,3,-1,5,-1,-1,7,-1,-1],"loss_changes":[8.025868E1,2.6208698E1,0E0,9.261852E0,0E0,0E0,6.896393E0,0E0,0E0],"parents":[2147483647,0,0,1,1,3,3,6,6],"right_children":[2,4,-1,6,-1,-1,8,-1,-1],"split_conditions":[-3.3688805E-1,1.4582461E-1,4.4196825E-2,-2.5150234E-1,4.165849E-2,8.822013E-3,1.2707536E0,-6.4171545E-2,-2.9619453E-2],"split_indices":[18,36,0,23,0,0,42,0,0],"split_type":[0,0,0,0,0,0,0,0,0],"sum_hessian":[1.9966296E2,1.15375114E2,8.428786E1,1.011361E2,1.4239015E1,1.0730044E1,9.040606E1,5.035547E1,4.005059E1],"tree_param":{"num_deleted":"0","num_feature":"52","num_nodes":"9","size_leaf_vector":"1"}},{"base_weights":[-1.48298945E-2,-4.9628958E-1,4.113321E-2,2.219486E-1,-7.5924915E-1,-1.1976545E-2,3.742256E-2,-6.955549E-2,-4.1076207E-1,-3.0479956E-5,-5.5553213E-2],"categories":[],"categories_nodes":[],"categories_segments":[],"categories_sizes":[],"default_left":[1,0,0,0,0,0,0,0,1,0,0],"id":23,"left_children":[1,3,-1,5,7,-1,-1,-1,9,-1,-1],"loss_changes":[6.7449554E1,2.2553213E1,0E0,5.6351633E0,1.1649147E1,0E0,0E0,0E0,1.0150703E1,0E0,0E0],"parents":[2147483647,0,0,1,1,3,3,4,4,8,8],"right_children":[2,4,-1,6,8,-1,-1,-1,10,-1,-1],"split_conditions":[-3.3688805E-1,1.3771077E0,4.113321E-2,2.4304993E-2,1.8305764E0,-1.1976545E-2,3.742256E-2,-6.955549E-2,-2.8413966E-1,-3.0479956E-5,-5.5553213E-2],"split_indices":[18,7,0,14,32,0,0,0,23,0,0],"split_type":[0,0,0,0,0,0,0,0,0,0,0],"sum_hessian":[1.9801558E2,1.17520615E2,8.049497E1,3.153715E1,8.598347E1,1.5634948E1,1.5902201E1,3.894923E1,4.7034233E1,2.6739462E1,2.0294771E1],"tree_param":{"num_deleted":"0","num_feature":"52","num_nodes":"11","size_leaf_vector":"1"}},{"base_weights":[-1.4082693E-2,-5.136056E-1,4.2097364E-2,-6.7142344E-1,3.3308428E-2,-7.7472395E-1,1.1619446E-2,-6.1179783E-2,-3.0940475E-2],"categories":[],"categories_nodes":[],"categories_segments":[],"categories_sizes":[],"default_left":[0,1,0,1,0,0,0,0,0],"id":24,"left_children":[1,3,-1,5,-1,7,-1,-1,-1],"loss_changes":[7.01975E1,1.9874678E1,0E0,9.193546E0,0E0,5.2231445E0,0E0,0E0,0E0],"parents":[2147483647,0,0,1,1,3,3,5,5],"right_children":[2,4,-1,6,-1,8,-1,-1,-1],"split_conditions":[-3.3688805E-1,1.4582461E-1,4.2097364E-2,1.5272073E-1,3.3308428E-2,1.8305764E0,1.1619446E-2,-6.1179783E-2,-3.0940475E-2],"split_indices":[18,36,0,16,0,32,0,0,0],"split_type":[0,0,0,0,0,0,0,0,0],"sum_hessian":[1.9434251E2,1.146238E2,7.9718704E1,1.0019947E2,1.442433E1,8.9604164E1,1.0595307E1,4.4547226E1,4.5056934E1],"tree_param":{"num_deleted":"0","num_feature":"52","num_nodes":"9","size_leaf_vector":"1"}},{"base_weights":[4.906701E-3,-4.901482E-1,6.1225224E-1,-6.756906E-1,1.8738301E-2,4.2155657E-2,1.8897062E-3,-5.3994887E-2,-2.8446013E-1,1.5126761E-2,-5.0028563E-2],"categories":[],"categories_nodes":[],"categories_segments":[],"categories_sizes":[],"default_left":[1,1,1,0,0,0,0,0,1,0,0],"id":25,"left_children":[1,3,5,7,-1,-1,-1,-1,9,-1,-1],"loss_changes":[5.7671135E1,1.5945461E1,4.4969444E0,7.301277E0,0E0,0E0,0E0,0E0,9.892741E0,0E0,0E0],"parents":[2147483647,0,0,1,1,2,2,3,3,8,8],"right_children":[2,4,6,8,-1,-1,-1,-1,10,-1,-1],"split_conditions":[-4.0679932E-1,-6.362099E-1,1.1762503E0,-5.532821E-1,1.8738301E-2,4.2155657E-2,1.8897062E-3,-5.3994887E-2,-9.005573E-1,1.5126761E-2,-5.0028563E-2],"split_indices":[18,37,26,18,0,0,0,0,19,0,0],"split_type":[0,0,0,0,0,0,0,0,0,0,0],"sum_hessian":[1.8981105E2,1.04678925E2,8.5132126E1,8.5148865E1,1.9530064E1,7.349026E1,1.1641872E1,5.3300667E1,3.1848198E1,1.6385172E1,1.5463026E1],"tree_param":{"num_deleted":"0","num_feature":"52","num_nodes":"11","size_leaf_vector":"1"}},{"base_weights":[1.0592252E-2,-7.675179E-1,3.1260267E-1,-6.439438E-2,-1.53359E-2,4.9073502E-1,-5.0559927E-2,1.5151408E-1,7.584318E-1,-1.49102425E-2,2.9718673E-2,1.8542932E-2,6.1333608E-2],"categories":[],"categories_nodes":[],"categories_segments":[],"categories_sizes":[],"default_left":[0,0,1,0,0,0,0,0,0,0,0,0,0],"id":26,"left_children":[1,3,5,-1,-1,7,-1,9,11,-1,-1,-1,-1],"loss_changes":[4.2652325E1,7.668804E0,2.7315945E1,0E0,0E0,1.0227699E1,0E0,7.203697E0,7.200897E0,0E0,0E0,0E0,0E0],"parents":[2147483647,0,0,1,1,2,2,5,5,7,7,8,8],"right_children":[2,4,6,-1,-1,8,-1,10,12,-1,-1,-1,-1],"split_conditions":[7.989133E0,1.8305764E0,2.0246777E-1,-6.439438E-2,-1.53359E-2,2.4304993E-2,-5.0559927E-2,-2.1529467E-1,-6.3698865E-2,-1.49102425E-2,2.9718673E-2,1.8542932E-2,6.1333608E-2],"split_indices":[44,32,49,0,0,14,0,5,36,0,0,0,0],"split_type":[0,0,0,0,0,0,0,0,0,0,0,0,0],"sum_hessian":[1.794803E2,4.975316E1,1.2972714E2,3.0463594E1,1.9289562E1,1.12894936E2,1.6832203E1,5.048595E1,6.240898E1,2.346311E1,2.702284E1,2.3887482E1,3.85215E1],"tree_param":{"num_deleted":"0","num_feature":"52","num_nodes":"13","size_leaf_vector":"1"}},{"base_weights":[2.2494145E-2,-4.2142788E-1,6.8564445E-1,-5.791265E-1,2.9884445E-2,3.218075E-1,5.3504776E-2,4.178813E-3,-7.120497E-1,-2.4837838E-2,4.7221184E-2,-6.194234E-2,-2.7115494E-2],"categories":[],"categories_nodes":[],"categories_segments":[],"categories_sizes":[],"default_left":[1,1,0,0,0,0,0,0,0,0,0,0,0],"id":27,"left_children":[1,3,5,7,-1,9,-1,-1,11,-1,-1,-1,-1],"loss_changes":[5.4378696E1,1.6337519E1,5.266365E0,8.236868E0,0E0,1.0028053E1,0E0,0E0,6.1063995E0,0E0,0E0,0E0,0E0],"parents":[2147483647,0,0,1,1,2,2,3,3,5,5,8,8],"right_children":[2,4,6,8,-1,10,-1,-1,12,-1,-1,-1,-1],"split_conditions":[-3.3688805E-1,1.20861806E-1,-3.7286267E-1,8.694416E-1,2.9884445E-2,-1.8550214E-1,5.3504776E-2,4.178813E-3,1.8305764E0,-2.4837838E-2,4.7221184E-2,-6.194234E-2,-2.7115494E-2],"split_indices":[18,16,16,34,0,14,0,0,32,0,0,0,0],"split_type":[0,0,0,0,0,0,0,0,0,0,0,0,0],"sum_hessian":[1.8273686E2,1.0968003E2,7.305683E1,9.393922E1,1.5740814E1,2.734514E1,4.571169E1,1.6054794E1,7.788442E1,1.0635067E1,1.6710073E1,3.3573105E1,4.4311317E1],"tree_param":{"num_deleted":"0","num_feature":"52","num_nodes":"13","size_leaf_vector":"1"}},{"base_weights":[2.0926088E-2,-3.901361E-1,5.923213E-1,-5.285014E-1,3.3663515E-2,2.1635409E-1,4.9690682E-2,-6.422237E-1,1.435959E-2,-2.8714437E-2,4.0721692E-2,-4.954502E-2,-1.47401495E-2],"categories":[],"categories_nodes":[],"categories_segments":[],"categories_sizes":[],"default_left":[1,1,0,1,0,0,0,0,0,0,0,0,0],"id":28,"left_children":[1,3,5,7,-1,9,-1,11,-1,-1,-1,-1,-1],"loss_changes":[4.0986904E1,1.3657915E1,6.2938366E0,7.9376335E0,0E0,9.801044E0,0E0,5.467678E0,0E0,0E0,0E0,0E0,0E0],"parents":[2147483647,0,0,1,1,2,2,3,3,5,5,7,7],"right_children":[2,4,6,8,-1,10,-1,12,-1,-1,-1,-1,-1],"split_conditions":[-3.3688805E-1,2.930822E-1,-3.7286267E-1,-4.0068E-1,3.3663515E-2,-2.2746357E-1,4.9690682E-2,-5.259149E-1,1.435959E-2,-2.8714437E-2,4.0721692E-2,-4.954502E-2,-1.47401495E-2],"split_indices":[18,16,16,17,0,14,0,18,0,0,0,0,0],"split_type":[0,0,0,0,0,0,0,0,0,0,0,0,0],"sum_hessian":[1.725184E2,1.00520836E2,7.199756E1,8.8143456E1,1.2377386E1,2.8494015E1,4.350354E1,7.69152E1,1.1228256E1,1.1369625E1,1.712439E1,5.1840805E1,2.507439E1],"tree_param":{"num_deleted":"0","num_feature":"52","num_nodes":"13","size_leaf_vector":"1"}},{"base_weights":[2.8122155E-2,-3.6594072E-1,3.599661E-2,-5.6731987E-1,3.0495074E-2,-6.869623E-2,-3.79137E-1,-3.2131366E-2,1.9706884E-2],"categories":[],"categories_nodes":[],"categories_segments":[],"categories_sizes":[],"default_left":[1,1,0,0,0,0,0,0,0],"id":29,"left_children":[1,3,-1,5,-1,-1,7,-1,-1],"loss_changes":[3.906738E1,1.8365604E1,0E0,8.689192E0,0E0,0E0,7.3467083E0,0E0,0E0],"parents":[2147483647,0,0,1,1,3,3,6,6],"right_children":[2,4,-1,6,-1,-1,8,-1,-1],"split_conditions":[-3.3688805E-1,-2.6286435E-1,3.599661E-2,-6.514163E-1,3.0495074E-2,-6.869623E-2,3.1684378E-1,-3.2131366E-2,1.9706884E-2],"split_indices":[18,26,0,18,0,0,15,0,0],"split_type":[0,0,0,0,0,0,0,0,0],"sum_hessian":[1.7140149E2,1.01686005E2,6.9715485E1,8.293264E1,1.8753359E1,1.9129992E1,6.380265E1,5.2453007E1,1.1349646E1],"tree_param":{"num_deleted":"0","num_feature":"52","num_nodes":"9","size_leaf_vector":"1"}},{"base_weights":[-2.4720361E-2,-4.1665086E-1,5.344184E-1,-6.1723787E-1,3.2601442E-2,3.1996754E-1,5.126417E-2,-3.5942966E-1,-6.775098E-2,-9.019418E-3,3.390147E-2,-4.312762E-2,7.3223277E-3],"categories":[],"categories_nodes":[],"categories_segments":[],"categories_sizes":[],"default_left":[0,1,0,1,0,0,0,0,0,0,0,0,0],"id":30,"left_children":[1,3,5,7,-1,9,-1,11,-1,-1,-1,-1,-1],"loss_changes":[3.742913E1,1.9664541E1,4.557808E0,1.0614393E1,0E0,5.1272707E0,0E0,9.949812E0,0E0,0E0,0E0,0E0,0E0],"parents":[2147483647,0,0,1,1,2,2,3,3,5,5,7,7],"right_children":[2,4,6,8,-1,10,-1,12,-1,-1,-1,-1,-1],"split_conditions":[-3.3688805E-1,-2.6647067E-1,1.5083714E0,-1.8665117E-1,3.2601442E-2,-1.7806503E-1,5.126417E-2,1.2707536E0,-6.775098E-2,-9.019418E-3,3.390147E-2,-4.312762E-2,7.3223277E-3],"split_indices":[18,36,10,24,0,19,0,42,0,0,0,0,0],"split_type":[0,0,0,0,0,0,0,0,0,0,0,0,0],"sum_hessian":[1.6878125E2,9.937723E1,6.940402E1,8.2497086E1,1.688014E1,4.275197E1,2.6652056E1,5.599892E1,2.6498165E1,1.4777982E1,2.7973986E1,3.1783253E1,2.421567E1],"tree_param":{"num_deleted":"0","num_feature":"52","num_nodes":"13","size_leaf_vector":"1"}},{"base_weights":[-7.1402915E-2,-4.1323236E-1,4.8726377E-1,-5.729242E-1,2.5459228E-2,1.0847554E-1,4.3740507E-2,-3.532209E-1,-6.367475E-2,-2.8633064E-2,3.230677E-2,-3.1869337E-2,2.3899967E-2],"categories":[],"categories_nodes":[],"categories_segments":[],"categories_sizes":[],"default_left":[1,1,0,1,0,0,0,0,0,0,0,0,0],"id":31,"left_children":[1,3,5,7,-1,9,-1,11,-1,-1,-1,-1,-1],"loss_changes":[3.28296E1,1.4492901E1,5.901931E0,9.270699E0,0E0,6.960806E0,0E0,8.7040825E0,0E0,0E0,0E0,0E0,0E0],"parents":[2147483647,0,0,1,1,2,2,3,3,5,5,7,7],"right_children":[2,4,6,8,-1,10,-1,12,-1,-1,-1,-1,-1],"split_conditions":[-3.3688805E-1,-2.6647067E-1,-3.7286267E-1,-9.6052915E-2,2.5459228E-2,-2.2746357E-1,4.3740507E-2,3.1684378E-1,-6.367475E-2,-2.8633064E-2,3.230677E-2,-3.1869337E-2,2.3899967E-2],"split_indices":[18,36,16,24,0,14,0,15,0,0,0,0,0],"split_type":[0,0,0,0,0,0,0,0,0,0,0,0,0],"sum_hessian":[1.6985649E2,1.0554026E2,6.431623E1,8.8905136E1,1.6635128E1,2.562044E1,3.869579E1,6.250605E1,2.6399086E1,1.0799625E1,1.4820814E1,5.0777447E1,1.1728601E1],"tree_param":{"num_deleted":"0","num_feature":"52","num_nodes":"13","size_leaf_vector":"1"}},{"base_weights":[5.716379E-3,-3.369985E-1,5.339035E-1,-4.7963136E-1,3.8459685E-2,-4.4235005E-3,4.08386E-2,-6.193678E-1,1.334772E-2,-6.0060445E-2,-2.4747252E-2],"categories":[],"categories_nodes":[],"categories_segments":[],"categories_sizes":[],"default_left":[0,1,0,1,0,0,0,0,0,0,0],"id":32,"left_children":[1,3,5,7,-1,-1,-1,9,-1,-1,-1],"loss_changes":[2.9795618E1,1.4234201E1,5.825199E0,8.742094E0,0E0,0E0,0E0,5.3839645E0,0E0,0E0,0E0],"parents":[2147483647,0,0,1,1,2,2,3,3,7,7],"right_children":[2,4,6,8,-1,-1,-1,10,-1,-1,-1],"split_conditions":[-3.3688805E-1,3.8486955E-1,-1.14186E0,-2.5354993E-1,3.8459685E-2,-4.4235005E-3,4.08386E-2,-6.303186E-1,1.334772E-2,-6.0060445E-2,-2.4747252E-2],"split_indices":[18,16,5,26,0,0,0,18,0,0,0],"split_type":[0,0,0,0,0,0,0,0,0,0,0],"sum_hessian":[1.6260674E2,9.883772E1,6.3769012E1,8.6702415E1,1.2135311E1,1.2501148E1,5.1267864E1,7.240884E1,1.4293576E1,2.410704E1,4.8301796E1],"tree_param":{"num_deleted":"0","num_feature":"52","num_nodes":"11","size_leaf_vector":"1"}},{"base_weights":[3.7159573E-2,-2.2195579E-1,6.605355E-1,-4.627329E-1,5.0985014E-1,2.4514053E-2,6.530314E-2,-5.3929444E-2,-2.1203144E-1,2.9939658E-3,5.147467E-2,5.3476905E-3,-4.0630713E-2],"categories":[],"categories_nodes":[],"categories_segments":[],"categories_sizes":[],"default_left":[1,1,0,0,0,0,0,0,1,0,0,0,0],"id":33,"left_children":[1,3,5,7,9,-1,-1,-1,11,-1,-1,-1,-1],"loss_changes":[2.6170101E1,2.0420523E1,4.682106E0,9.2902355E0,4.5734468E0,0E0,0E0,0E0,7.957164E0,0E0,0E0,0E0,0E0],"parents":[2147483647,0,0,1,1,2,2,3,3,4,4,8,8],"right_children":[2,4,6,8,10,-1,-1,-1,12,-1,-1,-1,-1],"split_conditions":[-6.1710443E-2,-5.1043904E-1,9.4516295E-1,-6.012377E-1,-2.593322E-1,2.4514053E-2,6.530314E-2,-5.3929444E-2,-4.466832E-1,2.9939658E-3,5.147467E-2,5.3476905E-3,-4.0630713E-2],"split_indices":[16,17,27,18,34,0,0,0,19,0,0,0,0],"split_type":[0,0,0,0,0,0,0,0,0,0,0,0,0],"sum_hessian":[1.6010994E2,1.1355365E2,4.6556297E1,8.5718445E1,2.7835205E1,3.0531015E1,1.6025282E1,3.0346304E1,5.5372143E1,1.2482878E1,1.5352326E1,3.41015E1,2.127064E1],"tree_param":{"num_deleted":"0","num_feature":"52","num_nodes":"13","size_leaf_vector":"1"}},{"base_weights":[-6.0054203E-3,-3.8355252E-1,4.7960192E-1,-5.38428E-1,1.7353E-2,1.4536893E-1,4.294024E-2,-5.1063884E-2,-2.6306304E-1,-1.5781624E-2,3.6712557E-2,1.1744327E-2,-5.007158E-2],"categories":[],"categories_nodes":[],"categories_segments":[],"categories_sizes":[],"default_left":[1,1,0,0,0,0,0,0,1,0,0,0,0],"id":34,"left_children":[1,3,5,7,-1,9,-1,-1,11,-1,-1,-1,-1],"loss_changes":[2.895476E1,9.412627E0,5.3468666E0,6.023302E0,0E0,5.848238E0,0E0,0E0,1.0658878E1,0E0,0E0,0E0,0E0],"parents":[2147483647,0,0,1,1,2,2,3,3,5,5,8,8],"right_children":[2,4,6,8,-1,10,-1,-1,12,-1,-1,-1,-1],"split_conditions":[-4.0679932E-1,-3.793526E-1,9.596079E-1,1.8305764E0,1.7353E-2,2.4304993E-2,4.294024E-2,-5.1063884E-2,-2.3858899E-1,-1.5781624E-2,3.6712557E-2,1.1744327E-2,-5.007158E-2],"split_indices":[18,26,1,32,0,14,0,0,23,0,0,0,0],"split_type":[0,0,0,0,0,0,0,0,0,0,0,0,0],"sum_hessian":[1.5592627E2,8.784175E1,6.808452E1,7.156642E1,1.627533E1,2.885151E1,3.9233013E1,3.253593E1,3.9030487E1,1.5616487E1,1.3235023E1,2.201396E1,1.7016527E1],"tree_param":{"num_deleted":"0","num_feature":"52","num_nodes":"13","size_leaf_vector":"1"}},{"base_weights":[1.8217439E-2,-6.088931E-1,2.2533241E-1,-6.286921E-2,-1.2144554E-2,3.704661E-1,-4.1037608E-2,-4.7350917E-2,6.874395E-1,-3.864417E-2,1.1518598E-2,1.7191235E-2,6.91656E-2],"categories":[],"categories_nodes":[],"categories_segments":[],"categories_sizes":[],"default_left":[0,0,1,0,0,0,0,0,0,0,0,0,0],"id":35,"left_children":[1,3,5,-1,-1,7,-1,9,11,-1,-1,-1,-1],"loss_changes":[2.0635714E1,6.8269596E0,1.6006372E1,0E0,0E0,1.3751329E1,0E0,6.6388326E0,1.06702175E1,0E0,0E0,0E0,0E0],"parents":[2147483647,0,0,1,1,2,2,5,5,7,7,8,8],"right_children":[2,4,6,-1,-1,8,-1,10,12,-1,-1,-1,-1],"split_conditions":[3.9945614E0,1.9223673E-2,-3.036806E-1,-6.286921E-2,-1.2144554E-2,-1.102474E-1,-4.1037608E-2,-8.3076644E-1,1.6794044E0,-3.864417E-2,1.1518598E-2,1.7191235E-2,6.91656E-2],"split_indices":[44,0,51,0,0,37,0,21,6,0,0,0,0],"split_type":[0,0,0,0,0,0,0,0,0,0,0,0,0],"sum_hessian":[1.568217E2,3.8452843E1,1.1836885E2,1.7729986E1,2.0722858E1,1.025873E2,1.5781552E1,4.4620975E1,5.7966324E1,1.2289139E1,3.2331837E1,3.200589E1,2.5960436E1],"tree_param":{"num_deleted":"0","num_feature":"52","num_nodes":"13","size_leaf_vector":"1"}},{"base_weights":[-3.3608392E-2,-3.251638E-1,4.2474958E-1,-4.479749E-1,2.8691819E-2,1.1077548E-1,4.6444077E-2,-5.19246E-2,-2.6826584E-1,-2.1948248E-2,2.519429E-2,-6.7913868E-3,-5.2366406E-2],"categories":[],"categories_nodes":[],"categories_segments":[],"categories_sizes":[],"default_left":[1,1,0,0,0,0,0,0,1,0,0,0,0],"id":36,"left_children":[1,3,5,7,-1,9,-1,-1,11,-1,-1,-1,-1],"loss_changes":[2.075875E1,9.575138E0,6.541439E0,5.9803104E0,0E0,5.01373E0,0E0,0E0,5.464094E0,0E0,0E0,0E0,0E0],"parents":[2147483647,0,0,1,1,2,2,3,3,5,5,8,8],"right_children":[2,4,6,8,-1,10,-1,-1,12,-1,-1,-1,-1],"split_conditions":[-3.3688805E-1,2.930822E-1,2.3411213E-1,-6.303186E-1,2.8691819E-2,-2.2072363E-1,4.6444077E-2,-5.19246E-2,8.8277705E-2,-2.1948248E-2,2.519429E-2,-6.7913868E-3,-5.2366406E-2],"split_indices":[18,16,14,18,0,15,0,0,49,0,0,0,0],"split_type":[0,0,0,0,0,0,0,0,0,0,0,0,0],"sum_hessian":[1.5330363E2,9.387903E1,5.942461E1,8.1814316E1,1.2064714E1,3.1989212E1,2.74354E1,2.3473513E1,5.83408E1,1.2513703E1,1.9475508E1,4.7374844E1,1.09659605E1],"tree_param":{"num_deleted":"0","num_feature":"52","num_nodes":"13","size_leaf_vector":"1"}},{"base_weights":[1.1114321E-2,2.2913389E-1,-6.184378E-1,3.6506605E-1,-3.977286E-2,-6.059957E-2,-1.921202E-2,-2.1407375E-2,8.4111977E-1,-2.404783E-2,2.6796963E-2,2.9926376E-2,7.23157E-2],"categories":[],"categories_nodes":[],"categories_segments":[],"categories_sizes":[],"default_left":[0,1,0,0,0,0,0,0,0,0,0,0,0],"id":37,"left_children":[1,3,5,7,-1,-1,-1,9,11,-1,-1,-1,-1],"loss_changes":[2.0837626E1,1.3910701E1,4.2374744E0,1.8134056E1,0E0,0E0,0E0,1.0002092E1,4.9020596E0,0E0,0E0,0E0,0E0],"parents":[2147483647,0,0,1,1,2,2,3,3,7,7,8,8],"right_children":[2,4,6,8,-1,-1,-1,10,12,-1,-1,-1,-1],"split_conditions":[3.9551153E0,-2.0560302E-1,-3.3752285E-2,3.1200042E-1,-3.977286E-2,-6.059957E-2,-1.921202E-2,2.4304993E-2,1.6794044E0,-2.404783E-2,2.6796963E-2,2.9926376E-2,7.23157E-2],"split_indices":[33,51,0,37,0,0,0,14,6,0,0,0,0],"split_type":[0,0,0,0,0,0,0,0,0,0,0,0,0],"sum_hessian":[1.497848E2,1.1172832E2,3.8056484E1,9.746638E1,1.4261945E1,1.5422197E1,2.2634285E1,5.432162E1,4.3144753E1,3.0080978E1,2.4240644E1,2.3459295E1,1.9685455E1],"tree_param":{"num_deleted":"0","num_feature":"52","num_nodes":"13","size_leaf_vector":"1"}},{"base_weights":[3.3827532E-2,-4.8648766E-1,3.670833E-1,-6.659707E-1,1.46437995E-2,-1.685532E-2,4.918555E-1,-9.226264E-3,-5.2334387E-2,3.0336818E-1,6.2131863E-2,-7.048731E-5,3.5328567E-2],"categories":[],"categories_nodes":[],"categories_segments":[],"categories_sizes":[],"default_left":[0,1,0,1,0,0,0,0,0,0,0,0,0],"id":38,"left_children":[1,3,5,7,-1,-1,9,-1,-1,11,-1,-1,-1],"loss_changes":[2.5693008E1,7.7516766E0,7.4363728E0,4.8031216E0,0E0,0E0,7.479595E0,0E0,0E0,5.032964E0,0E0,0E0,0E0],"parents":[2147483647,0,0,1,1,2,2,3,3,6,6,9,9],"right_children":[2,4,6,8,-1,-1,10,-1,-1,12,-1,-1,-1],"split_conditions":[-5.175457E-1,-2.6482126E-1,1.2707536E0,-8.1802076E-1,1.46437995E-2,-1.685532E-2,1.2628317E0,-9.226264E-3,-5.2334387E-2,-6.015611E-2,6.2131863E-2,-7.048731E-5,3.5328567E-2],"split_indices":[18,16,42,15,0,0,17,0,0,37,0,0,0],"split_type":[0,0,0,0,0,0,0,0,0,0,0,0,0],"sum_hessian":[1.4614368E2,5.6878685E1,8.926499E1,4.5731655E1,1.114703E1,1.4210608E1,7.505438E1,1.3630476E1,3.2101177E1,5.688936E1,1.8165024E1,2.8005556E1,2.8883802E1],"tree_param":{"num_deleted":"0","num_feature":"52","num_nodes":"13","size_leaf_vector":"1"}},{"base_weights":[4.228937E-3,-2.775916E-1,4.5199102E-1,-6.066418E-1,4.9935233E-2,2.0486401E-1,4.697906E-2,-4.9728062E-2,4.201999E-3,-2.0421533E-2,1.867509E-2,-1.2515405E-2,2.9640507E-2],"categories":[],"categories_nodes":[],"categories_segments":[],"categories_sizes":[],"default_left":[1,0,1,1,0,0,0,0,0,0,0,0,0],"id":39,"left_children":[1,3,5,7,9,11,-1,-1,-1,-1,-1,-1,-1],"loss_changes":[1.7989191E1,9.460467E0,4.3436203E0,6.631176E0,4.6726227E0,4.03377E0,0E0,0E0,0E0,0E0,0E0,0E0,0E0],"parents":[2147483647,0,0,1,1,2,2,3,3,4,4,5,5],"right_children":[2,4,6,8,10,12,-1,-1,-1,-1,-1,-1,-1],"split_conditions":[-3.3402652E-1,1.5018928E-1,-1.690484E-2,-2.454404E-1,1.2707536E0,-2.5120981E-2,4.697906E-2,-4.9728062E-2,4.201999E-3,-2.0421533E-2,1.867509E-2,-1.2515405E-2,2.9640507E-2],"split_indices":[16,14,18,37,42,37,0,0,0,0,0,0,0],"split_type":[0,0,0,0,0,0,0,0,0,0,0,0,0],"sum_hessian":[1.4056374E2,8.6500534E1,5.4063206E1,4.2724808E1,4.3775723E1,3.1879894E1,2.218331E1,3.1995539E1,1.0729269E1,1.743414E1,2.6341585E1,1.3234369E1,1.8645525E1],"tree_param":{"num_deleted":"0","num_feature":"52","num_nodes":"13","size_leaf_vector":"1"}},{"base_weights":[1.0260414E-2,-1.5585752E-1,3.9713204E-2,-4.541307E-1,1.511146E-1,-4.2074587E-2,5.9827105E-3,4.3400776E-1,-4.169438E-2,-2.9280363E-4,7.487585E-2],"categories":[],"categories_nodes":[],"categories_segments":[],"categories_sizes":[],"default_left":[1,0,0,1,1,0,0,0,0,0,0],"id":40,"left_children":[1,3,-1,5,7,-1,-1,9,-1,-1,-1],"loss_changes":[1.5543848E1,1.0550222E1,0E0,8.05035E0,1.3983251E1,0E0,0E0,1.5529527E1,0E0,0E0,0E0],"parents":[2147483647,0,0,1,1,3,3,4,4,7,7],"right_children":[2,4,-1,6,8,-1,-1,10,-1,-1,-1],"split_conditions":[3.1200042E-1,2.7607355E-1,3.9713204E-2,-2.8032723E-1,-2.0560302E-1,-4.2074587E-2,5.9827105E-3,1.3198162E0,-4.169438E-2,-2.9280363E-4,7.487585E-2],"split_indices":[37,14,0,17,51,0,0,24,0,0,0],"split_type":[0,0,0,0,0,0,0,0,0,0,0],"sum_hessian":[1.4164334E2,1.1347594E2,2.8167397E1,5.7310295E1,5.6165638E1,3.9444763E1,1.7865534E1,4.2456127E1,1.3709512E1,2.8228573E1,1.4227554E1],"tree_param":{"num_deleted":"0","num_feature":"52","num_nodes":"11","size_leaf_vector":"1"}},{"base_weights":[4.5632314E-2,-4.8322308E-1,2.610386E-1,-4.6707544E-2,5.5808946E-3,5.4499537E-2,5.820503E-1,-2.8611255E-1,3.5192993E-1,4.699997E-2,1.9498297E-3,1.6199253E-2,-3.970903E-2,2.8382205E-5,6.0961265E-2],"categories":[],"categories_nodes":[],"categories_segments":[],"categories_sizes":[],"default_left":[0,1,0,0,0,0,1,0,0,0,0,0,0,0,0],"id":41,"left_children":[1,3,5,-1,-1,7,9,11,13,-1,-1,-1,-1,-1,-1],"loss_changes":[1.6135706E1,7.051792E0,6.6322494E0,0E0,0E0,6.4084744E0,4.3158655E0,6.358028E0,7.8620343E0,0E0,0E0,0E0,0E0,0E0,0E0],"parents":[2147483647,0,0,1,1,2,2,5,5,6,6,7,7,8,8],"right_children":[2,4,6,-1,-1,8,10,12,14,-1,-1,-1,-1,-1,-1],"split_conditions":[-5.679152E-1,-9.569301E-1,2.5711408E-1,-4.6707544E-2,5.5808946E-3,1.5018928E-1,6.462558E-1,-4.419521E-1,3.9163753E-1,4.699997E-2,1.9498297E-3,1.6199253E-2,-3.970903E-2,2.8382205E-5,6.0961265E-2],"split_indices":[18,23,15,0,0,14,34,24,20,0,0,0,0,0,0],"split_type":[0,0,0,0,0,0,0,0,0,0,0,0,0,0,0],"sum_hessian":[1.3953491E2,4.0024742E1,9.951017E1,2.6233204E1,1.3791536E1,6.1263184E1,3.8246986E1,2.8576233E1,3.268695E1,2.7682451E1,1.0564535E1,1.1635422E1,1.6940811E1,2.202917E1,1.0657782E1],"tree_param":{"num_deleted":"0","num_feature":"52","num_nodes":"15","size_leaf_vector":"1"}},{"base_weights":[4.64811E-2,-1.509212E-1,4.0266424E-2,-2.8673068E-1,3.4321997E-2,1.431698E-1,-5.779782E-1,3.474379E-2,-3.8308278E-2,-4.781355E-2,-8.804834E-3],"categories":[],"categories_nodes":[],"categories_segments":[],"categories_sizes":[],"default_left":[1,1,0,1,0,1,0,0,0,0,0],"id":42,"left_children":[1,3,-1,5,-1,7,9,-1,-1,-1,-1],"loss_changes":[1.73348E1,1.06715765E1,0E0,1.1446643E1,0E0,1.3131637E1,5.009491E0,0E0,0E0,0E0,0E0],"parents":[2147483647,0,0,1,1,3,3,5,5,6,6],"right_children":[2,4,-1,6,-1,8,10,-1,-1,-1,-1],"split_conditions":[1.4582461E-1,2.746775E-1,4.0266424E-2,-6.8365556E-1,3.4321997E-2,2.0246777E-1,2.7607355E-1,3.474379E-2,-3.8308278E-2,-4.781355E-2,-8.804834E-3],"split_indices":[36,37,0,5,0,49,14,0,0,0,0],"split_type":[0,0,0,0,0,0,0,0,0,0,0],"sum_hessian":[1.3876602E2,1.0601895E2,3.2747078E1,8.976051E1,1.6258432E1,3.6456604E1,5.3303913E1,2.3571041E1,1.2885561E1,3.47932E1,1.8510712E1],"tree_param":{"num_deleted":"0","num_feature":"52","num_nodes":"11","size_leaf_vector":"1"}},{"base_weights":[8.146003E-3,-2.1836087E-1,4.3459865E-1,-3.6700025E-1,3.3443816E-2,1.387443E-3,4.5304213E-2,-1.0893147E-1,-5.096203E-2,6.1300597E-3,-4.064538E-2],"categories":[],"categories_nodes":[],"categories_segments":[],"categories_sizes":[],"default_left":[0,1,0,1,0,0,0,1,0,0,0],"id":43,"left_children":[1,3,5,7,-1,-1,-1,9,-1,-1,-1],"loss_changes":[1.3590948E1,1.0803329E1,6.4178343E0,9.584852E0,0E0,0E0,0E0,6.284656E0,0E0,0E0,0E0],"parents":[2147483647,0,0,1,1,2,2,3,3,7,7],"right_children":[2,4,6,8,-1,-1,-1,10,-1,-1,-1],"split_conditions":[-2.2364986E-1,1.4582461E-1,-1.1918805E-1,-2.3316307E-1,3.3443816E-2,1.387443E-3,4.5304213E-2,5.8912307E-2,-5.096203E-2,6.1300597E-3,-4.064538E-2],"split_indices":[18,36,7,24,0,0,0,19,0,0,0],"split_type":[0,0,0,0,0,0,0,0,0,0,0],"sum_hessian":[1.3871867E2,9.091687E1,4.7801804E1,7.673999E1,1.4176881E1,2.1398726E1,2.6403078E1,5.0791897E1,2.5948095E1,3.7636528E1,1.3155367E1],"tree_param":{"num_deleted":"0","num_feature":"52","num_nodes":"11","size_leaf_vector":"1"}},{"base_weights":[-2.5872767E-2,-5.6696087E-2,6.439322E-2,-1.1970907E-1,3.8963014E-1,-2.7930161E-3,-4.2081412E-2,-1.175447E-2,3.810569E-2,2.5535356E-2,-2.3030065E-2],"categories":[],"categories_nodes":[],"categories_segments":[],"categories_sizes":[],"default_left":[0,0,0,1,0,1,0,0,0,0,0],"id":44,"left_children":[1,-1,3,5,7,9,-1,-1,-1,-1,-1],"loss_changes":[1.1242877E1,0E0,7.4516125E0,5.4202724E0,6.583013E0,1.116405E1,0E0,0E0,0E0,0E0,0E0],"parents":[2147483647,0,0,2,2,3,3,4,4,5,5],"right_children":[2,-1,4,6,8,10,-1,-1,-1,-1,-1],"split_conditions":[7.5250584E-1,-5.6696087E-2,2.5711408E-1,-3.036806E-1,-6.874132E-1,-4.419521E-1,-4.2081412E-2,-1.175447E-2,3.810569E-2,2.5535356E-2,-2.3030065E-2],"split_indices":[46,0,15,51,17,24,0,0,0,0,0],"split_type":[0,0,0,0,0,0,0,0,0,0,0],"sum_hessian":[1.3378813E2,1.1118139E1,1.2266998E2,7.873405E1,4.3935944E1,6.639325E1,1.2340794E1,1.3037599E1,3.0898344E1,3.1200012E1,3.5193237E1],"tree_param":{"num_deleted":"0","num_feature":"52","num_nodes":"11","size_leaf_vector":"1"}},{"base_weights":[-5.351858E-2,-2.2991638E-1,4.7790933E-1,-3.2382557E-1,2.9953893E-2,2.9115265E-3,5.1485125E-2,-4.8207182E-2,-1.9571099E-1,-3.126904E-2,2.0915146E-3],"categories":[],"categories_nodes":[],"categories_segments":[],"categories_sizes":[],"default_left":[1,0,0,0,0,0,0,0,0,0,0],"id":45,"left_children":[1,3,5,7,-1,-1,-1,-1,9,-1,-1],"loss_changes":[1.2803965E1,7.1694427E0,5.5202403E0,5.4511757E0,0E0,0E0,0E0,0E0,5.5223637E0,0E0,0E0],"parents":[2147483647,0,0,1,1,2,2,3,3,8,8],"right_children":[2,4,6,8,-1,-1,-1,-1,10,-1,-1],"split_conditions":[1.20861806E-1,1.1846948E0,-5.9617862E-2,-6.303186E-1,2.9953893E-2,2.9115265E-3,5.1485125E-2,-4.8207182E-2,-2.8300514E-3,-3.126904E-2,2.0915146E-3],"split_indices":[16,0,14,18,0,0,0,0,5,0,0],"split_type":[0,0,0,0,0,0,0,0,0,0,0],"sum_hessian":[1.3441411E2,1.0134263E2,3.3071476E1,9.0272095E1,1.1070533E1,1.606019E1,1.7011286E1,1.7918512E1,7.2353584E1,2.9481436E1,4.2872147E1],"tree_param":{"num_deleted":"0","num_feature":"52","num_nodes":"11","size_leaf_vector":"1"}},{"base_weights":[5.4909743E-2,-4.465929E-1,2.216109E-1,-5.8579617E-3,-5.9242275E-2,-7.125612E-2,3.1074021E-2,-5.7927704E-1,3.301445E-1,-6.110269E-2,-3.7253282E-3,4.0665988E-2,-1.1790235E-2],"categories":[],"categories_nodes":[],"categories_segments":[],"categories_sizes":[],"default_left":[0,1,0,0,0,0,0,0,0,0,0,0,0],"id":46,"left_children":[1,3,5,-1,-1,7,-1,9,11,-1,-1,-1,-1],"loss_changes":[1.1254183E1,6.2480865E0,8.784843E0,0E0,0E0,1.0709163E1,0E0,5.1892786E0,5.524699E0,0E0,0E0,0E0,0E0],"parents":[2147483647,0,0,1,1,2,2,5,5,7,7,8,8],"right_children":[2,4,6,-1,-1,8,-1,10,12,-1,-1,-1,-1],"split_conditions":[1.2707536E0,-4.6392673E-1,2.4304993E-2,-5.8579617E-3,-5.9242275E-2,-2.1529467E-1,3.1074021E-2,-1.4286204E-1,-5.63155E-1,-6.110269E-2,-3.7253282E-3,4.0665988E-2,-1.1790235E-2],"split_indices":[42,5,14,0,0,5,0,37,14,0,0,0,0],"split_type":[0,0,0,0,0,0,0,0,0,0,0,0,0],"sum_hessian":[1.3243387E2,3.262027E1,9.98136E1,2.0543953E1,1.2076316E1,5.0578667E1,4.923493E1,2.2128826E1,2.844984E1,1.1443795E1,1.0685031E1,1.6964941E1,1.14848995E1],"tree_param":{"num_deleted":"0","num_feature":"52","num_nodes":"13","size_leaf_vector":"1"}},{"base_weights":[-1.6470075E-2,-1.4724606E-1,4.4953283E-2,-3.2953826E-1,4.8475537E-1,1.7784515E-2,-4.2541778E-1,3.6540517E-4,6.0371093E-2,-4.1626874E-2,-1.1526556E-2],"categories":[],"categories_nodes":[],"categories_segments":[],"categories_sizes":[],"default_left":[1,1,0,0,0,0,0,0,0,0,0],"id":47,"left_children":[1,3,-1,5,7,-1,9,-1,-1,-1,-1],"loss_changes":[1.3428399E1,1.3343787E1,0E0,5.492261E0,6.488946E0,0E0,4.747094E0,0E0,0E0,0E0,0E0],"parents":[2147483647,0,0,1,1,3,3,4,4,6,6],"right_children":[2,4,-1,6,8,-1,10,-1,-1,-1,-1],"split_conditions":[1.9775527E0,1.1069912E-1,4.4953283E-2,-6.321462E-1,2.568379E-1,1.7784515E-2,1.4487653E0,3.6540517E-4,6.0371093E-2,-4.1626874E-2,-1.1526556E-2],"split_indices":[33,16,0,7,36,0,28,0,0,0,0],"split_type":[0,0,0,0,0,0,0,0,0,0,0],"sum_hessian":[1.3200249E2,1.13435936E2,1.8566553E1,8.8412994E1,2.5022945E1,1.1466006E1,7.694699E1,1.3573936E1,1.1449009E1,3.4867233E1,4.2079754E1],"tree_param":{"num_deleted":"0","num_feature":"52","num_nodes":"11","size_leaf_vector":"1"}},{"base_weights":[-3.512105E-4,-2.7178216E-1,3.6784092E-1,2.0287363E-2,-4.0813538E-1,-6.3050683E-3,3.2084607E-2,-6.9950444E-1,-5.8103446E-2,-6.0218565E-2,-2.0889244E-3,1.5274563E-2,-3.220045E-2],"categories":[],"categories_nodes":[],"categories_segments":[],"categories_sizes":[],"default_left":[1,1,0,0,0,0,0,1,1,0,0,0,0],"id":48,"left_children":[1,3,5,-1,7,-1,-1,9,11,-1,-1,-1,-1],"loss_changes":[1.3261485E1,6.4903145E0,4.5009913E0,0E0,6.3724737E0,0E0,0E0,6.883972E0,4.574241E0,0E0,0E0,0E0,0E0],"parents":[2147483647,0,0,1,1,2,2,4,4,7,7,8,8],"right_children":[2,4,6,-1,8,-1,-1,10,12,-1,-1,-1,-1],"split_conditions":[-4.5479617E-1,-1.0569396E0,-6.985613E-1,2.0287363E-2,2.7607355E-1,-6.3050683E-3,3.2084607E-2,-7.3737466E-1,-3.1988722E-1,-6.0218565E-2,-2.0889244E-3,1.5274563E-2,-3.220045E-2],"split_indices":[16,15,15,0,14,0,0,37,19,0,0,0,0],"split_type":[0,0,0,0,0,0,0,0,0,0,0,0,0],"sum_hessian":[1.306958E2,7.538435E1,5.531144E1,1.3503548E1,6.188081E1,1.4524899E1,4.078654E1,3.3225376E1,2.8655436E1,2.2445265E1,1.078011E1,1.7614714E1,1.1040721E1],"tree_param":{"num_deleted":"0","num_feature":"52","num_nodes":"13","size_leaf_vector":"1"}},{"base_weights":[-7.3313233E-3,-5.6359935E-1,1.8702598E-1,-5.985974E-2,-1.4216076E-2,5.17674E-3,7.644202E-1,1.4596178E-1,-4.7165595E-2,6.917313E-2,1.6294071E-2,2.0978767E-2,-4.1874234E-2],"categories":[],"categories_nodes":[],"categories_segments":[],"categories_sizes":[],"default_left":[0,0,0,0,0,1,1,1,0,0,0,0,0],"id":49,"left_children":[1,3,5,-1,-1,7,9,11,-1,-1,-1,-1,-1],"loss_changes":[1.4377508E1,4.6455307E0,1.0346708E1,0E0,0E0,8.578253E0,4.2060804E0,1.1475207E1,0E0,0E0,0E0,0E0,0E0],"parents":[2147483647,0,0,1,1,2,2,5,5,6,6,7,7],"right_children":[2,4,6,-1,-1,8,10,12,-1,-1,-1,-1,-1],"split_conditions":[7.989133E0,1.9223673E-2,5.579444E-1,-5.985974E-2,-1.4216076E-2,-1.4010243E-1,-6.322179E-2,1.0593028E0,-4.7165595E-2,6.917313E-2,1.6294071E-2,2.0978767E-2,-4.1874234E-2],"split_indices":[44,0,16,0,0,49,20,35,0,0,0,0,0],"split_type":[0,0,0,0,0,0,0,0,0,0,0,0,0],"sum_hessian":[1.3100882E2,3.342983E1,9.757899E1,1.3473085E1,1.9956745E1,7.4974785E1,2.2604202E1,6.434234E1,1.0632441E1,1.1891855E1,1.0712347E1,5.2303482E1,1.2038858E1],"tree_param":{"num_deleted":"0","num_feature":"52","num_nodes":"13","size_leaf_vector":"1"}},{"base_weights":[6.1440933E-2,-8.505632E-2,5.2231985E-1,-1.9898957E-1,4.3205447E-2,5.8226444E-2,1.1396417E-2,2.846577E-2,-3.2415253E-1,-5.929589E-2,-1.1255758E-2],"categories":[],"categories_nodes":[],"categories_segments":[],"categories_sizes":[],"default_left":[1,1,1,0,0,0,0,0,0,0,0],"id":50,"left_children":[1,3,5,7,-1,-1,-1,-1,9,-1,-1],"loss_changes":[8.684095E0,9.129262E0,4.433611E0,7.4528894E0,0E0,0E0,0E0,0E0,6.491078E0,0E0,0E0],"parents":[2147483647,0,0,1,1,2,2,3,3,8,8],"right_children":[2,4,6,8,-1,-1,-1,-1,10,-1,-1],"split_conditions":[1.20861806E-1,1.9775527E0,-5.9395266E-1,-4.4097108E-1,4.3205447E-2,5.8226444E-2,1.1396417E-2,2.846577E-2,-5.1043904E-1,-5.929589E-2,-1.1255758E-2],"split_indices":[16,33,34,22,0,0,0,0,17,0,0],"split_type":[0,0,0,0,0,0,0,0,0,0,0],"sum_hessian":[1.2696192E2,9.695786E1,3.0004057E1,8.559807E1,1.13597975E1,1.1959858E1,1.8044199E1,1.2978554E1,7.2619514E1,1.1321736E1,6.1297775E1],"tree_param":{"num_deleted":"0","num_feature":"52","num_nodes":"11","size_leaf_vector":"1"}},{"base_weights":[5.567993E-2,-1.4731579E-1,4.6712282E-1,-3.9247125E-1,2.329033E-1,-5.9162E-3,3.9822504E-2,-7.6205534E-1,-4.4866805E-3,6.425831E-1,-2.9325133E-2,-1.635813E-2,-7.265633E-2,6.7359984E-2,6.0927286E-3],"categories":[],"categories_nodes":[],"categories_segments":[],"categories_sizes":[],"default_left":[1,0,0,0,1,0,0,0,0,1,0,0,0,0,0],"id":51,"left_children":[1,3,5,7,9,-1,-1,11,-1,13,-1,-1,-1,-1,-1],"loss_changes":[1.061225E1,8.0416565E0,4.7303343E0,6.0753803E0,1.0384706E1,0E0,0E0,4.9498844E0,0E0,5.6419315E0,0E0,0E0,0E0,0E0,0E0],"parents":[2147483647,0,0,1,1,2,2,3,3,4,4,7,7,9,9],"right_children":[2,4,6,8,10,-1,-1,12,-1,14,-1,-1,-1,-1,-1],"split_conditions":[-2.0151755E-1,1.6794044E0,-9.093726E-1,1.9223673E-2,-3.036806E-1,-5.9162E-3,3.9822504E-2,-5.6351185E-1,-4.4866805E-3,-8.644403E-1,-2.9325133E-2,-1.635813E-2,-7.265633E-2,6.7359984E-2,6.0927286E-3],"split_indices":[18,6,37,0,51,0,0,0,0,24,0,0,0,0,0],"split_type":[0,0,0,0,0,0,0,0,0,0,0,0,0,0,0],"sum_hessian":[1.25236725E2,8.42914E1,4.0945328E1,5.1228413E1,3.3062984E1,1.0687548E1,3.0257782E1,2.3033728E1,2.8194687E1,2.1160091E1,1.1902893E1,1.1788278E1,1.124545E1,1.0642006E1,1.0518085E1],"tree_param":{"num_deleted":"0","num_feature":"52","num_nodes":"15","size_leaf_vector":"1"}},{"base_weights":[3.4571588E-2,-8.4782936E-2,4.3960027E-2,-4.294087E-2,2.316213E-2,1.2653528E-1,-3.9783802E-2,-5.228319E-3,3.2672156E-2],"categories":[],"categories_nodes":[],"categories_segments":[],"categories_sizes":[],"default_left":[1,0,0,0,1,1,0,0,0],"id":52,"left_children":[1,3,-1,-1,5,7,-1,-1,-1],"loss_changes":[1.0604258E1,7.43614E0,0E0,0E0,6.7519135E0,7.418888E0,0E0,0E0,0E0],"parents":[2147483647,0,0,1,1,4,4,5,5],"right_children":[2,4,-1,-1,6,8,-1,-1,-1],"split_conditions":[5.579444E-1,-6.4726835E-1,4.3960027E-2,-4.294087E-2,1.0407112E0,-5.2205294E-1,-3.9783802E-2,-5.228319E-3,3.2672156E-2],"split_indices":[16,18,0,0,35,26,0,0,0],"split_type":[0,0,0,0,0,0,0,0,0],"sum_hessian":[1.2552461E2,1.0794725E2,1.7577364E1,1.4948551E1,9.2998695E1,8.1532265E1,1.146643E1,5.447647E1,2.7055796E1],"tree_param":{"num_deleted":"0","num_feature":"52","num_nodes":"9","size_leaf_vector":"1"}},{"base_weights":[1.9076278E-2,-1.0858765E-1,4.564119E-2,-2.9492584E-1,3.4827906E-1,-3.416233E-2,-5.7230696E-2,2.6895284E-5,4.9978472E-2,2.1735538E-2,-2.817165E-2],"categories":[],"categories_nodes":[],"categories_segments":[],"categories_sizes":[],"default_left":[1,1,0,1,0,0,1,0,0,0,0],"id":53,"left_children":[1,3,-1,5,7,-1,9,-1,-1,-1,-1],"loss_changes":[1.1803054E1,9.168272E0,0E0,4.936985E0,5.2779984E0,0E0,7.4229426E0,0E0,0E0,0E0,0E0],"parents":[2147483647,0,0,1,1,3,3,4,4,6,6],"right_children":[2,4,-1,6,8,-1,10,-1,-1,-1,-1],"split_conditions":[1.9775527E0,-1.5523681E-1,4.564119E-2,-5.426533E-1,-1.690484E-2,-3.416233E-2,-1.0978129E0,2.6895284E-5,4.9978472E-2,2.1735538E-2,-2.817165E-2],"split_indices":[33,16,0,18,18,0,25,0,0,0,0],"split_type":[0,0,0,0,0,0,0,0,0,0,0],"sum_hessian":[1.2279424E2,1.0548857E2,1.7305672E1,7.518002E1,3.0308552E1,3.424493E1,4.093509E1,1.8228327E1,1.2080225E1,2.0350708E1,2.0584381E1],"tree_param":{"num_deleted":"0","num_feature":"52","num_nodes":"11","size_leaf_vector":"1"}},{"base_weights":[2.0190552E-2,-1.23628244E-1,3.6154613E-2,-4.8756074E-2,-1.4906234E-2,-3.2701105E-2,1.5011932E-1,4.5991253E-2,-2.2417908E-3],"categories":[],"categories_nodes":[],"categories_segments":[],"categories_sizes":[],"default_left":[1,0,0,0,0,0,0,0,0],"id":54,"left_children":[1,3,-1,-1,5,-1,7,-1,-1],"loss_changes":[1.043696E1,7.4820776E0,0E0,0E0,7.7303696E0,0E0,7.824406E0,0E0,0E0],"parents":[2147483647,0,0,1,1,4,4,6,6],"right_children":[2,4,-1,-1,6,-1,8,-1,-1],"split_conditions":[3.1200042E-1,-6.514163E-1,3.6154613E-2,-4.8756074E-2,-3.88889E-1,-3.2701105E-2,-3.1061116E-1,4.5991253E-2,-2.2417908E-3],"split_indices":[37,18,0,0,17,0,23,0,0],"split_type":[0,0,0,0,0,0,0,0,0],"sum_hessian":[1.2271895E2,9.904722E1,2.3671732E1,1.26172695E1,8.642995E1,1.9971807E1,6.645814E1,1.477912E1,5.167902E1],"tree_param":{"num_deleted":"0","num_feature":"52","num_nodes":"9","size_leaf_vector":"1"}},{"base_weights":[-7.843785E-2,-2.4496123E-1,1.6234824E-2,-3.7894228E-1,2.5905555E-2,-6.737985E-1,6.875553E-2,-7.133979E-2,-2.5844349E-2,3.445935E-2,-3.820318E-2],"categories":[],"categories_nodes":[],"categories_segments":[],"categories_sizes":[],"default_left":[1,1,0,0,0,0,1,0,0,0,0],"id":55,"left_children":[1,3,-1,5,-1,7,9,-1,-1,-1,-1],"loss_changes":[7.0478888E0,7.58462E0,0E0,9.135535E0,0E0,4.6979046E0,1.044087E1,0E0,0E0,0E0,0E0],"parents":[2147483647,0,0,1,1,3,3,5,5,6,6],"right_children":[2,4,-1,6,-1,8,10,-1,-1,-1,-1],"split_conditions":[-2.0151755E-1,1.4582461E-1,1.6234824E-2,1.6794044E0,2.5905555E-2,7.2189987E-1,-3.036806E-1,-7.133979E-2,-2.5844349E-2,3.445935E-2,-3.820318E-2],"split_indices":[18,36,0,6,0,26,51,0,0,0,0],"split_type":[0,0,0,0,0,0,0,0,0,0,0],"sum_hessian":[1.1912461E2,8.084841E1,3.82762E1,6.785426E1,1.2994149E1,4.060594E1,2.7248323E1,1.1768714E1,2.8837227E1,1.5981417E1,1.1266907E1],"tree_param":{"num_deleted":"0","num_feature":"52","num_nodes":"11","size_leaf_vector":"1"}},{"base_weights":[-9.625584E-3,-1.2144482E-1,3.8399983E-2,-2.473949E-1,2.2610018E-2,-4.226767E-1,1.652699E-1,-4.7887426E-2,-5.5139544E-3,4.543658E-2,-3.560496E-2],"categories":[],"categories_nodes":[],"categories_segments":[],"categories_sizes":[],"default_left":[1,1,0,0,0,0,1,0,0,0,0],"id":56,"left_children":[1,3,-1,5,-1,7,9,-1,-1,-1,-1],"loss_changes":[8.821862E0,6.5911226E0,0E0,6.091644E0,0E0,7.2182016E0,1.1919804E1,0E0,0E0,0E0,0E0],"parents":[2147483647,0,0,1,1,3,3,5,5,6,6],"right_children":[2,4,-1,6,-1,8,10,-1,-1,-1,-1],"split_conditions":[1.9775527E0,3.1200042E-1,3.8399983E-2,1.3198162E0,2.2610018E-2,1.9223673E-2,-2.0560302E-1,-4.7887426E-2,-5.5139544E-3,4.543658E-2,-3.560496E-2],"split_indices":[33,37,0,24,0,0,51,0,0,0,0],"split_type":[0,0,0,0,0,0,0,0,0,0,0],"sum_hessian":[1.1937534E2,1.0253856E2,1.6836786E1,8.225134E1,2.028721E1,5.7713104E1,2.453824E1,2.6369585E1,3.1343521E1,1.378421E1,1.0754031E1],"tree_param":{"num_deleted":"0","num_feature":"52","num_nodes":"11","size_leaf_vector":"1"}},{"base_weights":[-3.2257352E-2,-2.5642747E-1,2.7339765E-1,-3.8234568E-1,1.7721431E-2,-1.1140985E-2,2.6590893E-2,-5.210982E-1,1.2614599E-2,-1.4839204E-2,-5.3677917E-2],"categories":[],"categories_nodes":[],"categories_segments":[],"categories_sizes":[],"default_left":[1,0,0,1,0,0,0,0,0,0,0],"id":57,"left_children":[1,3,5,7,-1,-1,-1,9,-1,-1,-1],"loss_changes":[8.310736E0,4.9694605E0,4.086282E0,4.8248205E0,0E0,0E0,0E0,4.5601063E0,0E0,0E0,0E0],"parents":[2147483647,0,0,1,1,2,2,3,3,7,7],"right_children":[2,4,6,8,-1,-1,-1,10,-1,-1,-1],"split_conditions":[-4.7355333E-1,1.559273E0,-6.985613E-1,2.3371202E-1,1.7721431E-2,-1.1140985E-2,2.6590893E-2,-2.626867E-1,1.2614599E-2,-1.4839204E-2,-5.3677917E-2],"split_indices":[16,24,15,36,0,0,0,24,0,0,0],"split_type":[0,0,0,0,0,0,0,0,0,0,0],"sum_hessian":[1.1926829E2,6.889854E1,5.0369747E1,5.6347107E1,1.25514345E1,1.3573785E1,3.679596E1,4.57545E1,1.0592604E1,2.7361935E1,1.8392567E1],"tree_param":{"num_deleted":"0","num_feature":"52","num_nodes":"11","size_leaf_vector":"1"}},{"base_weights":[-3.3898477E-2,-4.6338952E-1,9.5877424E-2,-6.012645E-2,-8.891032E-4,-2.4335673E-2,4.542163E-2,-2.542189E-1,3.6391947E-1,-3.1477176E-2,1.3921978E-2,-1.0530691E-2,4.5969877E-2],"categories":[],"categories_nodes":[],"categories_segments":[],"categories_sizes":[],"default_left":[0,0,0,0,0,1,0,0,0,0,0,0,0],"id":58,"left_children":[1,3,5,-1,-1,7,-1,9,11,-1,-1,-1,-1],"loss_changes":[6.617652E0,6.639569E0,7.2823596E0,0E0,0E0,7.081259E0,0E0,6.6657257E0,6.5423384E0,0E0,0E0,0E0,0E0],"parents":[2147483647,0,0,1,1,2,2,5,5,7,7,8,8],"right_children":[2,4,6,-1,-1,8,-1,10,12,-1,-1,-1,-1],"split_conditions":[3.9945614E0,1.9223673E-2,5.339684E-1,-6.012645E-2,-8.891032E-4,2.4304993E-2,4.542163E-2,3.1684378E-1,-3.2946953E-1,-3.1477176E-2,1.3921978E-2,-1.0530691E-2,4.5969877E-2],"split_indices":[44,0,20,0,0,14,0,15,36,0,0,0,0],"split_type":[0,0,0,0,0,0,0,0,0,0,0,0,0],"sum_hessian":[1.1693161E2,2.6537045E1,9.039457E1,1.1496345E1,1.50407E1,7.730232E1,1.3092249E1,4.877073E1,2.853159E1,3.1291101E1,1.7479628E1,1.2428294E1,1.6103296E1],"tree_param":{"num_deleted":"0","num_feature":"52","num_nodes":"13","size_leaf_vector":"1"}},{"base_weights":[-3.714038E-2,-1.5404578E-1,4.0056143E-2,-2.6888093E-1,1.8897446E-2,-4.5108134E-1,7.4623555E-2,-5.0322723E-2,-1.1049239E-2,4.0559985E-2,-2.379457E-2],"categories":[],"categories_nodes":[],"categories_segments":[],"categories_sizes":[],"default_left":[1,1,0,0,0,0,1,0,0,0,0],"id":59,"left_children":[1,3,-1,5,-1,7,9,-1,-1,-1,-1],"loss_changes":[9.928199E0,5.6375217E0,0E0,5.2509947E0,0E0,5.4962034E0,8.69824E0,0E0,0E0,0E0,0E0],"parents":[2147483647,0,0,1,1,3,3,5,5,6,6],"right_children":[2,4,-1,6,-1,8,10,-1,-1,-1,-1],"split_conditions":[1.9775527E0,3.1200042E-1,4.0056143E-2,9.5201385E-1,1.8897446E-2,8.415889E-1,-1.6321716E-1,-5.0322723E-2,-1.1049239E-2,4.0559985E-2,-2.379457E-2],"split_indices":[33,37,0,24,0,17,23,0,0,0,0],"split_type":[0,0,0,0,0,0,0,0,0,0,0],"sum_hessian":[1.1825681E2,1.0210128E2,1.6155529E1,8.236175E1,1.973953E1,5.361193E1,2.8749817E1,2.0989285E1,3.2622646E1,1.2439311E1,1.6310507E1],"tree_param":{"num_deleted":"0","num_feature":"52","num_nodes":"11","size_leaf_vector":"1"}},{"base_weights":[-5.0728517E-3,-7.765983E-2,4.0827252E-2,-4.112701E-2,1.0712043E-2,-1.602573E-1,2.5704476E-1,-2.996065E-2,8.147496E-3,5.2922677E-2,-1.6529243E-3],"categories":[],"categories_nodes":[],"categories_segments":[],"categories_sizes":[],"default_left":[1,1,0,0,0,0,0,0,0,0,0],"id":60,"left_children":[1,3,-1,-1,5,7,9,-1,-1,-1,-1],"loss_changes":[6.0943937E0,5.952441E0,0E0,0E0,4.1524777E0,5.9143734E0,7.20654E0,0E0,0E0,0E0,0E0],"parents":[2147483647,0,0,1,1,4,4,5,5,6,6],"right_children":[2,4,-1,-1,6,8,10,-1,-1,-1,-1],"split_conditions":[1.1325357E0,-6.558555E-1,4.0827252E-2,-4.112701E-2,5.5331314E-1,7.219963E-2,-4.6333286E-1,-2.996065E-2,8.147496E-3,5.2922677E-2,-1.6529243E-3],"split_indices":[27,18,0,0,5,0,23,0,0,0,0],"split_type":[0,0,0,0,0,0,0,0,0,0,0],"sum_hessian":[1.20412964E2,1.0968562E2,1.072734E1,1.3065987E1,9.661964E1,5.7240677E1,3.9378956E1,2.636089E1,3.0879787E1,1.1664052E1,2.7714905E1],"tree_param":{"num_deleted":"0","num_feature":"52","num_nodes":"11","size_leaf_vector":"1"}},{"base_weights":[2.303136E-2,-7.7993214E-2,3.7755534E-2,-2.7652815E-1,2.9080278E-1,-2.7972411E-2,1.3299212E-2,-1.6862188E-2,4.019497E-2],"categories":[],"categories_nodes":[],"categories_segments":[],"categories_sizes":[],"default_left":[1,1,0,1,0,0,0,0,0],"id":61,"left_children":[1,3,-1,5,7,-1,-1,-1,-1],"loss_changes":[7.2206464E0,7.494691E0,0E0,6.3719344E0,7.9762025E0,0E0,0E0,0E0,0E0],"parents":[2147483647,0,0,1,1,3,3,4,4],"right_children":[2,4,-1,6,8,-1,-1,-1,-1],"split_conditions":[5.579444E-1,-4.8515365E-1,3.7755534E-2,1.2707536E0,-7.3149043E-1,-2.7972411E-2,1.3299212E-2,-1.6862188E-2,4.019497E-2],"split_indices":[16,26,0,42,17,0,0,0,0],"split_type":[0,0,0,0,0,0,0,0,0],"sum_hessian":[1.1609853E2,1.0026179E2,1.5836743E1,6.533826E1,3.492353E1,4.73676E1,1.7970655E1,1.4025994E1,2.0897537E1],"tree_param":{"num_deleted":"0","num_feature":"52","num_nodes":"9","size_leaf_vector":"1"}},{"base_weights":[3.052104E-3,-1.8775472E-1,3.2683906E-1,-2.7256154E-2,8.0823645E-2,-4.2664856E-3,3.652677E-2,3.377428E-1,-3.0473331E-2,-1.04535045E-2,5.500125E-2],"categories":[],"categories_nodes":[],"categories_segments":[],"categories_sizes":[],"default_left":[1,0,0,0,1,0,0,0,0,0,0],"id":62,"left_children":[1,3,5,-1,7,-1,-1,9,-1,-1,-1],"loss_changes":[7.2250485E0,5.304576E0,4.908092E0,0E0,5.8440766E0,0E0,0E0,8.076637E0,0E0,0E0,0E0],"parents":[2147483647,0,0,1,1,2,2,4,4,7,7],"right_children":[2,4,6,-1,8,-1,-1,10,-1,-1,-1],"split_conditions":[-4.8515365E-1,3.599964E-1,-5.1043904E-1,-2.7256154E-2,8.8277705E-2,-4.2664856E-3,3.652677E-2,7.773456E-1,-3.0473331E-2,-1.04535045E-2,5.500125E-2],"split_indices":[26,14,17,0,49,0,0,24,0,0,0],"split_type":[0,0,0,0,0,0,0,0,0,0,0],"sum_hessian":[1.1495331E2,7.259399E1,4.235932E1,3.6089966E1,3.650402E1,1.7875952E1,2.448337E1,2.5710182E1,1.079384E1,1.4015324E1,1.1694858E1],"tree_param":{"num_deleted":"0","num_feature":"52","num_nodes":"11","size_leaf_vector":"1"}},{"base_weights":[-2.9565091E-3,-2.2045605E-1,2.5686836E-1,-2.8737562E-2,2.2000596E-2,4.341848E-1,-2.475088E-2,1.334104E-1,5.210326E-2,-2.1235334E-2,3.382541E-2],"categories":[],"categories_nodes":[],"categories_segments":[],"categories_sizes":[],"default_left":[0,1,1,0,0,0,0,1,0,0,0],"id":63,"left_children":[1,3,5,-1,-1,7,-1,9,-1,-1,-1],"loss_changes":[6.5094743E0,9.690991E0,6.409548E0,0E0,0E0,5.3674593E0,0E0,5.649334E0,0E0,0E0,0E0],"parents":[2147483647,0,0,1,1,2,2,5,5,7,7],"right_children":[2,4,6,-1,-1,8,-1,10,-1,-1,-1],"split_conditions":[3.599964E-1,-9.088917E-2,-4.017582E-1,-2.8737562E-2,2.2000596E-2,1.6794044E0,-2.475088E-2,-8.714765E-1,5.210326E-2,-2.1235334E-2,3.382541E-2],"split_indices":[14,37,51,0,0,6,0,40,0,0,0],"split_type":[0,0,0,0,0,0,0,0,0,0,0],"sum_hessian":[1.1318583E2,6.1693604E1,5.149223E1,4.296234E1,1.8731262E1,4.098647E1,1.0505759E1,2.4985882E1,1.6000587E1,1.1800432E1,1.3185451E1],"tree_param":{"num_deleted":"0","num_feature":"52","num_nodes":"11","size_leaf_vector":"1"}},{"base_weights":[-3.9839286E-2,-2.7695063E-1,1.2801984E-2,-4.5077503E-2,-3.8557705E-2,1.903879E-1,-3.3469263E-2,-1.1625758E-2,4.07409E-2],"categories":[],"categories_nodes":[],"categories_segments":[],"categories_sizes":[],"default_left":[1,1,0,1,0,0,0,0,0],"id":64,"left_children":[1,3,-1,5,-1,7,-1,-1,-1],"loss_changes":[6.9438934E0,5.029172E0,0E0,4.643549E0,0E0,5.105782E0,0E0,0E0,0E0],"parents":[2147483647,0,0,1,1,3,3,5,5],"right_children":[2,4,-1,6,-1,8,-1,-1,-1],"split_conditions":[-4.4222283E-1,-1.9000389E-1,1.2801984E-2,-3.8016447E-1,-3.8557705E-2,4.4391927E-1,-3.3469263E-2,-1.1625758E-2,4.07409E-2],"split_indices":[18,24,0,19,0,14,0,0,0],"split_type":[0,0,0,0,0,0,0,0,0],"sum_hessian":[1.1367419E2,5.865431E1,5.501988E1,3.6581543E1,2.2072765E1,2.5499971E1,1.1081573E1,1.4614079E1,1.0885891E1],"tree_param":{"num_deleted":"0","num_feature":"52","num_nodes":"9","size_leaf_vector":"1"}},{"base_weights":[-2.2363488E-3,-1.6313234E-1,1.9329613E-2,-4.0770844E-2,-3.6164306E-3],"categories":[],"categories_nodes":[],"categories_segments":[],"categories_sizes":[],"default_left":[1,1,0,0,0],"id":65,"left_children":[1,3,-1,-1,-1],"loss_changes":[6.010369E0,4.0470467E0,0E0,0E0,0E0],"parents":[2147483647,0,0,1,1],"right_children":[2,4,-1,-1,-1],"split_conditions":[-2.2191288E-1,-6.4368874E-1,1.9329613E-2,-4.0770844E-2,-3.6164306E-3],"split_indices":[16,18,0,0,0],"split_type":[0,0,0,0,0],"sum_hessian":[1.1314726E2,7.596623E1,3.718103E1,1.168709E1,6.4279144E1],"tree_param":{"num_deleted":"0","num_feature":"52","num_nodes":"5","size_leaf_vector":"1"}},{"base_weights":[-6.215214E-2,-9.972575E-3,2.5370901E-2],"categories":[],"categories_nodes":[],"categories_segments":[],"categories_sizes":[],"default_left":[1,0,0],"id":66,"left_children":[1,-1,-1],"loss_changes":[5.8958097E0,0E0,0E0],"parents":[2147483647,0,0],"right_children":[2,-1,-1],"split_conditions":[3.8486955E-1,-9.972575E-3,2.5370901E-2],"split_indices":[16,0,0],"split_type":[0,0,0],"sum_hessian":[1.14430336E2,9.475734E1,1.9673002E1],"tree_param":{"num_deleted":"0","num_feature":"52","num_nodes":"3","size_leaf_vector":"1"}},{"base_weights":[4.3043118E-2,-2.2292472E-2,1.691635E-1,5.9756327E-1,-7.152127E-2,5.456714E-3,5.860708E-2,-3.848588E-2,2.8155664E-1,3.8548004E-2,-9.3095E-3],"categories":[],"categories_nodes":[],"categories_segments":[],"categories_sizes":[],"default_left":[0,0,1,0,1,0,0,0,0,0,0],"id":67,"left_children":[1,-1,3,5,7,-1,-1,-1,9,-1,-1],"loss_changes":[5.9074616E0,0E0,8.950654E0,5.902321E0,1.1491037E1,0E0,0E0,0E0,5.679503E0,0E0,0E0],"parents":[2147483647,0,0,2,2,3,3,4,4,8,8],"right_children":[2,-1,4,6,8,-1,-1,-1,10,-1,-1],"split_conditions":[1.2707536E0,-2.2292472E-2,-5.874113E-1,-1.7932008E-1,-6.008381E-1,5.456714E-3,5.860708E-2,-3.848588E-2,1.7288655E-1,3.8548004E-2,-9.3095E-3],"split_indices":[42,0,24,5,23,0,0,0,22,0,0],"split_type":[0,0,0,0,0,0,0,0,0,0,0],"sum_hessian":[1.107783E2,2.5385353E1,8.5392944E1,3.018438E1,5.520856E1,1.3452471E1,1.6731909E1,2.0806955E1,3.4401608E1,1.8577583E1,1.5824024E1],"tree_param":{"num_deleted":"0","num_feature":"52","num_nodes":"11","size_leaf_vector":"1"}},{"base_weights":[4.321823E-2,-5.6766294E-2,3.44125E-2,1.9312729E-1,-3.003701E-1,3.8935903E-1,-2.7281275E-2,-4.9831215E-2,9.275199E-2,5.686715E-2,9.962072E-4,-2.1095421E-2,2.462541E-2],"categories":[],"categories_nodes":[],"categories_segments":[],"categories_sizes":[],"default_left":[1,1,0,1,1,1,0,0,0,0,0,0,0],"id":68,"left_children":[1,3,-1,5,7,9,-1,-1,11,-1,-1,-1,-1],"loss_changes":[5.9675508E0,5.846295E0,0E0,6.2210565E0,1.0193362E1,7.6923194E0,0E0,0E0,4.205523E0,0E0,0E0,0E0,0E0],"parents":[2147483647,0,0,1,1,3,3,4,4,5,5,8,8],"right_children":[2,4,-1,6,8,10,-1,-1,12,-1,-1,-1,-1],"split_conditions":[6.650257E-1,-5.874113E-1,3.44125E-2,8.8277705E-2,-8.5445845E-1,-6.890393E-1,-2.7281275E-2,-4.9831215E-2,-9.282602E-1,5.686715E-2,9.962072E-4,-2.1095421E-2,2.462541E-2],"split_indices":[36,24,0,49,23,14,0,0,36,0,0,0,0],"split_type":[0,0,0,0,0,0,0,0,0,0,0,0,0],"sum_hessian":[1.1093002E2,9.4084724E1,1.6845303E1,4.6545074E1,4.7539646E1,3.6030064E1,1.0515013E1,1.9768261E1,2.7771385E1,1.3805432E1,2.222463E1,1.1532938E1,1.6238447E1],"tree_param":{"num_deleted":"0","num_feature":"52","num_nodes":"13","size_leaf_vector":"1"}},{"base_weights":[-1.3544167E-2,-2.1152964E-1,1.8809997E-1,-3.4744583E-2,8.2031064E-2,4.4867497E-2,4.413815E-2,3.1453397E-2,-1.795209E-2,2.8483334E-1,-3.1195674E-2,3.4848053E-2,-1.1922611E-2],"categories":[],"categories_nodes":[],"categories_segments":[],"categories_sizes":[],"default_left":[0,0,1,0,0,1,0,0,0,1,0,0,0],"id":69,"left_children":[1,3,5,-1,7,9,-1,-1,-1,11,-1,-1,-1],"loss_changes":[4.5474715E0,6.2454257E0,4.3954697E0,0E0,5.688164E0,6.3586874E0,0E0,0E0,0E0,4.810399E0,0E0,0E0,0E0],"parents":[2147483647,0,0,1,1,2,2,4,4,5,5,9,9],"right_children":[2,4,6,-1,8,10,-1,-1,-1,12,-1,-1,-1],"split_conditions":[1.921507E-1,-3.0873495E-1,1.3283534E-1,-3.4744583E-2,-6.051164E-1,3.1258855E-2,4.413815E-2,3.1453397E-2,-1.795209E-2,-1.8168426E-1,-3.1195674E-2,3.4848053E-2,-1.1922611E-2],"split_indices":[14,5,21,0,14,20,0,0,0,5,0,0,0],"split_type":[0,0,0,0,0,0,0,0,0,0,0,0,0],"sum_hessian":[1.1191052E2,5.6442802E1,5.5467724E1,2.4631205E1,3.1811598E1,4.482396E1,1.06437645E1,1.455461E1,1.7256987E1,3.1806114E1,1.3017844E1,1.9605087E1,1.2201027E1],"tree_param":{"num_deleted":"0","num_feature":"52","num_nodes":"13","size_leaf_vector":"1"}},{"base_weights":[5.5227812E-2,-8.970362E-2,2.143805E-2,1.3852264E-1,-4.5492458E-1,3.2988527E-1,-2.4031324E-2,-5.341942E-2,-4.1350103E-3,-2.543942E-3,4.466603E-2],"categories":[],"categories_nodes":[],"categories_segments":[],"categories_sizes":[],"default_left":[1,1,0,1,0,0,0,0,0,0,0],"id":70,"left_children":[1,3,-1,5,7,9,-1,-1,-1,-1,-1],"loss_changes":[4.838047E0,6.3130865E0,0E0,4.9713335E0,4.824396E0,5.4593987E0,0E0,0E0,0E0,0E0,0E0],"parents":[2147483647,0,0,1,1,3,3,4,4,5,5],"right_children":[2,4,-1,6,8,10,-1,-1,-1,-1,-1],"split_conditions":[-2.0151755E-1,-2.3316307E-1,2.143805E-2,6.722618E-2,1.4582461E-1,7.989133E0,-2.4031324E-2,-5.341942E-2,-4.1350103E-3,-2.543942E-3,4.466603E-2],"split_indices":[18,24,0,19,36,44,0,0,0,0,0],"split_type":[0,0,0,0,0,0,0,0,0,0,0],"sum_hessian":[1.0877639E2,7.3983116E1,3.4793278E1,4.59129E1,2.8070215E1,3.4170338E1,1.1742562E1,1.25772085E1,1.5493007E1,1.8475859E1,1.5694478E1],"tree_param":{"num_deleted":"0","num_feature":"52","num_nodes":"11","size_leaf_vector":"1"}},{"base_weights":[-1.8531282E-2],"categories":[],"categories_nodes":[],"categories_segments":[],"categories_sizes":[],"default_left":[0],"id":71,"left_children":[-1],"loss_changes":[0E0],"parents":[2147483647],"right_children":[-1],"split_conditions":[-1.1118769E-3],"split_indices":[0],"split_type":[0],"sum_hessian":[1.1124186E2],"tree_param":{"num_deleted":"0","num_feature":"52","num_nodes":"1","size_leaf_vector":"1"}},{"base_weights":[5.1057613E-3,-2.2251834E-1,2.1720973E-1,-4.5606053E-1,1.6679514E-2,3.541149E-1,-2.1851288E-2,4.781233E-3,-7.167977E-1,4.8075985E-2,-2.56239E-2,-7.1792364E-2,-1.656784E-2,-2.7686896E-2,3.0643282E-2],"categories":[],"categories_nodes":[],"categories_segments":[],"categories_sizes":[],"default_left":[0,0,1,0,0,1,0,0,0,0,1,0,0,0,0],"id":72,"left_children":[1,3,5,7,-1,9,-1,-1,11,-1,13,-1,-1,-1,-1],"loss_changes":[5.4209623E0,6.458784E0,4.754325E0,5.2695727E0,0E0,8.093145E0,0E0,0E0,4.9969025E0,0E0,6.471667E0,0E0,0E0,0E0,0E0],"parents":[2147483647,0,0,1,1,2,2,3,3,5,5,8,8,10,10],"right_children":[2,4,6,8,-1,10,-1,-1,12,-1,14,-1,-1,-1,-1],"split_conditions":[1.5018928E-1,3.765735E-1,-3.036806E-1,-6.7671394E-1,1.6679514E-2,-4.6392673E-1,-2.1851288E-2,4.781233E-3,-2.5120981E-2,4.8075985E-2,-7.7532274E-1,-7.1792364E-2,-1.656784E-2,-2.7686896E-2,3.0643282E-2],"split_indices":[14,15,51,24,0,5,0,0,37,0,40,0,0,0,0],"split_type":[0,0,0,0,0,0,0,0,0,0,0,0,0,0,0],"sum_hessian":[1.1028069E2,5.317049E1,5.71102E1,3.6314606E1,1.6855885E1,4.6541683E1,1.0568518E1,1.2115255E1,2.4199352E1,2.0863897E1,2.5677786E1,1.0764766E1,1.3434587E1,1.4243457E1,1.143433E1],"tree_param":{"num_deleted":"0","num_feature":"52","num_nodes":"15","size_leaf_vector":"1"}},{"base_weights":[5.1712498E-2,-2.0598313E-2,1.6377792E-1,-1.13805495E-1,5.052875E-1,-3.71804E-2,2.831801E-1,1.139774E-2,5.4447297E-2,-7.62704E-3,5.0980937E-2],"categories":[],"categories_nodes":[],"categories_segments":[],"categories_sizes":[],"default_left":[0,0,0,1,0,0,0,0,0,0,0],"id":73,"left_children":[1,-1,3,5,7,-1,9,-1,-1,-1,-1],"loss_changes":[4.82672E0,0E0,8.079779E0,9.714139E0,4.662692E0,0E0,6.4533386E0,0E0,0E0,0E0,0E0],"parents":[2147483647,0,0,2,2,3,3,4,4,6,6],"right_children":[2,-1,4,6,8,-1,10,-1,-1,-1,-1],"split_conditions":[1.2707536E0,-2.0598313E-2,2.4167947E-1,-6.7533666E-1,8.7803096E-1,-3.71804E-2,-2.5120981E-2,1.139774E-2,5.4447297E-2,-7.62704E-3,5.0980937E-2],"split_indices":[42,0,5,23,37,0,37,0,0,0,0],"split_type":[0,0,0,0,0,0,0,0,0,0,0],"sum_hessian":[1.0676437E2,2.3138916E1,8.362546E1,4.6498024E1,3.7127434E1,2.019858E1,2.6299444E1,2.1635866E1,1.5491568E1,1.5702378E1,1.0597065E1],"tree_param":{"num_deleted":"0","num_feature":"52","num_nodes":"11","size_leaf_vector":"1"}},{"base_weights":[-7.967251E-2,-1.8737257E-1,3.4938972E-2,-1.8413112E-2,1.3830785E-2],"categories":[],"categories_nodes":[],"categories_segments":[],"categories_sizes":[],"default_left":[1,1,0,0,0],"id":74,"left_children":[1,3,-1,-1,-1],"loss_changes":[8.008689E0,4.867838E0,0E0,0E0,0E0],"parents":[2147483647,0,0,1,1],"right_children":[2,4,-1,-1,-1],"split_conditions":[1.9775527E0,9.8328E-2,3.4938972E-2,-1.8413112E-2,1.3830785E-2],"split_indices":[33,16,0,0,0],"split_type":[0,0,0,0,0],"sum_hessian":[1.0979941E2,9.505217E1,1.4747242E1,7.411996E1,2.0932213E1],"tree_param":{"num_deleted":"0","num_feature":"52","num_nodes":"5","size_leaf_vector":"1"}},{"base_weights":[-1.9890567E-2,-1.6936992E-1,1.6064007E-2,-3.0250826E-1,1.7011272E-2,-5.1530963E-1,1.1393285E-2,-5.3085487E-2,-1.249073E-2],"categories":[],"categories_nodes":[],"categories_segments":[],"categories_sizes":[],"default_left":[0,1,0,1,0,0,0,0,0],"id":75,"left_children":[1,3,-1,5,-1,7,-1,-1,-1],"loss_changes":[4.71598E0,4.4329996E0,0E0,5.986752E0,0E0,4.299094E0,0E0,0E0,0E0],"parents":[2147483647,0,0,1,1,3,3,5,5],"right_children":[2,4,-1,6,-1,8,-1,-1,-1],"split_conditions":[2.5711408E-1,1.2707536E0,1.6064007E-2,1.2899385E-1,1.7011272E-2,1.1732655E0,1.1393285E-2,-5.3085487E-2,-1.249073E-2],"split_indices":[15,42,0,7,0,31,0,0,0],"split_type":[0,0,0,0,0,0,0,0,0],"sum_hessian":[1.0763494E2,7.1096794E1,3.6538147E1,5.520113E1,1.5895662E1,3.8511078E1,1.6690054E1,1.662822E1,2.1882856E1],"tree_param":{"num_deleted":"0","num_feature":"52","num_nodes":"9","size_leaf_vector":"1"}},{"base_weights":[2.3804914E-2,-1.6872686E-1,2.6306331E-2,-2.9769352E-1,2.6085246E-2,-4.5395315E-1,1.6477456E-2,-9.738316E-3,-5.0044406E-2],"categories":[],"categories_nodes":[],"categories_segments":[],"categories_sizes":[],"default_left":[0,1,0,1,0,1,0,0,0],"id":76,"left_children":[1,3,-1,5,-1,7,-1,-1,-1],"loss_changes":[8.584559E0,5.8518076E0,0E0,5.5953503E0,0E0,5.233614E0,0E0,0E0,0E0],"parents":[2147483647,0,0,1,1,3,3,5,5],"right_children":[2,4,-1,6,-1,8,-1,-1,-1],"split_conditions":[3.1684378E-1,1.7081277E-1,2.6306331E-2,3.599964E-1,2.6085246E-2,-6.611182E-1,1.6477456E-2,-9.738316E-3,-5.0044406E-2],"split_indices":[15,16,0,14,0,24,0,0,0],"split_type":[0,0,0,0,0,0,0,0,0],"sum_hessian":[1.0560854E2,7.252517E1,3.3083378E1,6.017269E1,1.2352475E1,4.7429783E1,1.2742911E1,2.764562E1,1.978416E1],"tree_param":{"num_deleted":"0","num_feature":"52","num_nodes":"9","size_leaf_vector":"1"}},{"base_weights":[-5.0406884E-2],"categories":[],"categories_nodes":[],"categories_segments":[],"categories_sizes":[],"default_left":[0],"id":77,"left_children":[-1],"loss_changes":[0E0],"parents":[2147483647],"right_children":[-1],"split_conditions":[-3.024413E-3],"split_indices":[0],"split_type":[0],"sum_hessian":[1.0659784E2],"tree_param":{"num_deleted":"0","num_feature":"52","num_nodes":"1","size_leaf_vector":"1"}},{"base_weights":[4.032699E-2,3.265971E-2,-4.3978255E-2,-1.3963413E-1,3.565901E-2,-3.4893338E-2,2.6977553E-3,-3.0653106E-2,1.1905997E-2],"categories":[],"categories_nodes":[],"categories_segments":[],"categories_sizes":[],"default_left":[0,0,1,0,0,0,1,0,0],"id":78,"left_children":[1,-1,3,5,-1,-1,7,-1,-1],"loss_changes":[4.5323915E0,0E0,5.689599E0,5.0755706E0,0E0,0E0,6.3352075E0,0E0,0E0],"parents":[2147483647,0,0,2,2,3,3,6,6],"right_children":[2,-1,4,6,-1,-1,8,-1,-1],"split_conditions":[-9.544179E-1,3.265971E-2,1.9775527E0,1.2899385E-1,3.565901E-2,-3.4893338E-2,-5.970531E-1,-3.0653106E-2,1.1905997E-2],"split_indices":[7,0,33,7,0,0,18,0,0],"split_type":[0,0,0,0,0,0,0,0,0],"sum_hessian":[1.05106285E2,1.4279945E1,9.082635E1,7.966836E1,1.1157983E1,1.86565E1,6.101186E1,1.6391848E1,4.462001E1],"tree_param":{"num_deleted":"0","num_feature":"52","num_nodes":"9","size_leaf_vector":"1"}},{"base_weights":[-1.9785263E-2,-1.9508982E-1,2.1960744E-1,-2.1204634E-2,2.1672294E-2,-6.1800543E-2,3.7222218E-2,3.7003804E-2,-3.1280316E-2],"categories":[],"categories_nodes":[],"categories_segments":[],"categories_sizes":[],"default_left":[0,1,0,0,0,0,0,0,0],"id":79,"left_children":[1,3,5,-1,-1,7,-1,-1,-1],"loss_changes":[4.5093274E0,5.585378E0,5.1653624E0,0E0,0E0,8.932819E0,0E0,0E0,0E0],"parents":[2147483647,0,0,1,1,2,2,5,5],"right_children":[2,4,6,-1,-1,8,-1,-1,-1],"split_conditions":[4.5897466E-1,5.596773E-1,2.930822E-1,-2.1204634E-2,2.1672294E-2,1.0407112E0,3.7222218E-2,3.7003804E-2,-3.1280316E-2],"split_indices":[5,23,16,0,0,35,0,0,0],"split_type":[0,0,0,0,0,0,0,0,0],"sum_hessian":[1.05429436E2,6.096819E1,4.4461246E1,4.774479E1,1.3223399E1,2.6617058E1,1.784419E1,1.0609517E1,1.600754E1],"tree_param":{"num_deleted":"0","num_feature":"52","num_nodes":"9","size_leaf_vector":"1"}},{"base_weights":[-5.3018343E-2,-2.4235567E-1,9.340129E-3,-4.1770372E-1,2.2347141E-2,-2.5780345E-3,-4.1128565E-2],"categories":[],"categories_nodes":[],"categories_segments":[],"categories_sizes":[],"default_left":[0,1,0,0,0,0,0],"id":80,"left_children":[1,3,-1,5,-1,-1,-1],"loss_changes":[4.1675487E0,6.1055346E0,0E0,4.3269997E0,0E0,0E0,0E0],"parents":[2147483647,0,0,1,1,3,3],"right_children":[2,4,-1,6,-1,-1,-1],"split_conditions":[2.5109917E-1,1.4319019E0,9.340129E-3,-6.8365556E-1,2.2347141E-2,-2.5780345E-3,-4.1128565E-2],"split_indices":[5,29,0,5,0,0,0],"split_type":[0,0,0,0,0,0,0],"sum_hessian":[1.0351996E2,5.4191685E1,4.9328274E1,4.241515E1,1.1776536E1,1.8160599E1,2.425455E1],"tree_param":{"num_deleted":"0","num_feature":"52","num_nodes":"7","size_leaf_vector":"1"}},{"base_weights":[4.8112307E-2,-3.1069594E-2,1.3085398E-1,-1.41276475E-2,2.5662085E-1,7.955477E-2,4.4496424E-2,2.3398513E-2,-2.1477362E-2],"categories":[],"categories_nodes":[],"categories_segments":[],"categories_sizes":[],"default_left":[1,0,0,0,1,1,0,0,0],"id":81,"left_children":[1,-1,3,-1,5,7,-1,-1,-1],"loss_changes":[5.011491E0,0E0,4.3406644E0,0E0,5.9213123E0,7.2201624E0,0E0,0E0,0E0],"parents":[2147483647,0,0,2,2,4,4,5,5],"right_children":[2,-1,4,-1,6,8,-1,-1,-1],"split_conditions":[-6.4368874E-1,-3.1069594E-2,-4.8515365E-1,-1.41276475E-2,-2.8032723E-1,-4.8458216E-1,4.4496424E-2,2.3398513E-2,-2.1477362E-2],"split_indices":[18,0,26,0,17,19,0,0,0],"split_type":[0,0,0,0,0,0,0,0,0],"sum_hessian":[1.0457499E2,1.2668215E1,9.190678E1,2.3266739E1,6.864004E1,5.1134953E1,1.7505087E1,2.9975521E1,2.115943E1],"tree_param":{"num_deleted":"0","num_feature":"52","num_nodes":"9","size_leaf_vector":"1"}},{"base_weights":[-1.3036285E-2,-7.317675E-3,2.2148037E-2],"categories":[],"categories_nodes":[],"categories_segments":[],"categories_sizes":[],"default_left":[1,0,0],"id":82,"left_children":[1,-1,-1],"loss_changes":[4.4607053E0,0E0,0E0],"parents":[2147483647,0,0],"right_children":[2,-1,-1],"split_conditions":[1.20861806E-1,-7.317675E-3,2.2148037E-2],"split_indices":[16,0,0],"split_type":[0,0,0],"sum_hessian":[1.0507519E2,8.229936E1,2.2775833E1],"tree_param":{"num_deleted":"0","num_feature":"52","num_nodes":"3","size_leaf_vector":"1"}},{"base_weights":[3.871406E-2,-1.7028183E-1,1.4164226E-2,-3.4681477E-2,8.196589E-2,2.7076652E-2,-2.7001573E-2],"categories":[],"categories_nodes":[],"categories_segments":[],"categories_sizes":[],"default_left":[1,0,0,0,1,0,0],"id":83,"left_children":[1,3,-1,-1,5,-1,-1],"loss_changes":[4.429573E0,5.423018E0,0E0,0E0,6.7191615E0,0E0,0E0],"parents":[2147483647,0,0,1,1,4,4],"right_children":[2,4,-1,-1,6,-1,-1],"split_conditions":[-1.2323748E0,1.8305764E0,1.4164226E-2,-3.4681477E-2,-6.8795305E-1,2.7076652E-2,-2.7001573E-2],"split_indices":[22,32,0,0,20,0,0],"split_type":[0,0,0,0,0,0,0],"sum_hessian":[1.0541767E2,5.126568E1,5.4151997E1,1.9100082E1,3.2165596E1,1.9075209E1,1.3090387E1],"tree_param":{"num_deleted":"0","num_feature":"52","num_nodes":"7","size_leaf_vector":"1"}},{"base_weights":[-5.4733284E-2,-1.3176614E-1,2.6448263E-2,-1.5164073E-2,1.8710013E-2],"categories":[],"categories_nodes":[],"categories_segments":[],"categories_sizes":[],"default_left":[1,1,0,0,0],"id":84,"left_children":[1,3,-1,-1,-1],"loss_changes":[4.0824785E0,5.0163217E0,0E0,0E0,0E0],"parents":[2147483647,0,0,1,1],"right_children":[2,4,-1,-1,-1],"split_conditions":[8.2069635E-1,1.2707536E0,2.6448263E-2,-1.5164073E-2,1.8710013E-2],"split_indices":[36,42,0,0,0],"split_type":[0,0,0,0,0],"sum_hessian":[1.0442606E2,9.1012054E1,1.3414008E1,7.184923E1,1.9162823E1],"tree_param":{"num_deleted":"0","num_feature":"52","num_nodes":"5","size_leaf_vector":"1"}}]},"name":"gbtree"},"learner_model_param":{"base_score":"[6.5104955E-1]","boost_from_average":"1","num_class":"0","num_feature":"52","num_target":"1"},"objective":{"name":"binary:logistic","reg_loss_param":{"scale_pos_weight":"0.75"}}},"version":[3,1,2]}